FANN_FLO_2.1
num_layers=3
learning_rate=0.700000
connection_rate=1.000000
network_type=0
learning_momentum=0.000000
training_algorithm=2
train_error_function=1
train_stop_function=0
cascade_output_change_fraction=0.010000
quickprop_decay=-0.000100
quickprop_mu=1.750000
rprop_increase_factor=1.200000
rprop_decrease_factor=0.500000
rprop_delta_min=0.000000
rprop_delta_max=50.000000
rprop_delta_zero=0.100000
cascade_output_stagnation_epochs=12
cascade_candidate_change_fraction=0.010000
cascade_candidate_stagnation_epochs=12
cascade_max_out_epochs=150
cascade_min_out_epochs=50
cascade_max_cand_epochs=150
cascade_min_cand_epochs=50
cascade_num_candidate_groups=2
bit_fail_limit=3.49999999999999977796e-01
cascade_candidate_limit=1.00000000000000000000e+03
cascade_weight_multiplier=4.00000000000000022204e-01
cascade_activation_functions_count=10
cascade_activation_functions=3 5 7 8 10 11 14 15 16 17 
cascade_activation_steepnesses_count=4
cascade_activation_steepnesses=2.50000000000000000000e-01 5.00000000000000000000e-01 7.50000000000000000000e-01 1.00000000000000000000e+00 
layer_sizes=901 101 48 
scale_included=0
neurons (num_inputs, activation_function, activation_steepness)=(0, 0, 0.00000000000000000000e+00) (0, 0, 0.00000000000000000000e+00) (0, 0, 0.00000000000000000000e+00) (0, 0, 0.00000000000000000000e+00) (0, 0, 0.00000000000000000000e+00) (0, 0, 0.00000000000000000000e+00) (0, 0, 0.00000000000000000000e+00) (0, 0, 0.00000000000000000000e+00) (0, 0, 0.00000000000000000000e+00) (0, 0, 0.00000000000000000000e+00) (0, 0, 0.00000000000000000000e+00) (0, 0, 0.00000000000000000000e+00) (0, 0, 0.00000000000000000000e+00) (0, 0, 0.00000000000000000000e+00) (0, 0, 0.00000000000000000000e+00) (0, 0, 0.00000000000000000000e+00) (0, 0, 0.00000000000000000000e+00) (0, 0, 0.00000000000000000000e+00) (0, 0, 0.00000000000000000000e+00) (0, 0, 0.00000000000000000000e+00) (0, 0, 0.00000000000000000000e+00) (0, 0, 0.00000000000000000000e+00) (0, 0, 0.00000000000000000000e+00) (0, 0, 0.00000000000000000000e+00) (0, 0, 0.00000000000000000000e+00) (0, 0, 0.00000000000000000000e+00) (0, 0, 0.00000000000000000000e+00) (0, 0, 0.00000000000000000000e+00) (0, 0, 0.00000000000000000000e+00) (0, 0, 0.00000000000000000000e+00) (0, 0, 0.00000000000000000000e+00) (0, 0, 0.00000000000000000000e+00) (0, 0, 0.00000000000000000000e+00) (0, 0, 0.00000000000000000000e+00) (0, 0, 0.00000000000000000000e+00) (0, 0, 0.00000000000000000000e+00) (0, 0, 0.00000000000000000000e+00) (0, 0, 0.00000000000000000000e+00) (0, 0, 0.00000000000000000000e+00) (0, 0, 0.00000000000000000000e+00) (0, 0, 0.00000000000000000000e+00) (0, 0, 0.00000000000000000000e+00) (0, 0, 0.00000000000000000000e+00) (0, 0, 0.00000000000000000000e+00) (0, 0, 0.00000000000000000000e+00) (0, 0, 0.00000000000000000000e+00) (0, 0, 0.00000000000000000000e+00) (0, 0, 0.00000000000000000000e+00) (0, 0, 0.00000000000000000000e+00) (0, 0, 0.00000000000000000000e+00) (0, 0, 0.00000000000000000000e+00) (0, 0, 0.00000000000000000000e+00) (0, 0, 0.00000000000000000000e+00) (0, 0, 0.00000000000000000000e+00) (0, 0, 0.00000000000000000000e+00) (0, 0, 0.00000000000000000000e+00) (0, 0, 0.00000000000000000000e+00) (0, 0, 0.00000000000000000000e+00) (0, 0, 0.00000000000000000000e+00) (0, 0, 0.00000000000000000000e+00) (0, 0, 0.00000000000000000000e+00) (0, 0, 0.00000000000000000000e+00) (0, 0, 0.00000000000000000000e+00) (0, 0, 0.00000000000000000000e+00) (0, 0, 0.00000000000000000000e+00) (0, 0, 0.00000000000000000000e+00) (0, 0, 0.00000000000000000000e+00) (0, 0, 0.00000000000000000000e+00) (0, 0, 0.00000000000000000000e+00) (0, 0, 0.00000000000000000000e+00) (0, 0, 0.00000000000000000000e+00) (0, 0, 0.00000000000000000000e+00) (0, 0, 0.00000000000000000000e+00) (0, 0, 0.00000000000000000000e+00) (0, 0, 0.00000000000000000000e+00) (0, 0, 0.00000000000000000000e+00) (0, 0, 0.00000000000000000000e+00) (0, 0, 0.00000000000000000000e+00) (0, 0, 0.00000000000000000000e+00) (0, 0, 0.00000000000000000000e+00) (0, 0, 0.00000000000000000000e+00) (0, 0, 0.00000000000000000000e+00) (0, 0, 0.00000000000000000000e+00) (0, 0, 0.00000000000000000000e+00) (0, 0, 0.00000000000000000000e+00) (0, 0, 0.00000000000000000000e+00) (0, 0, 0.00000000000000000000e+00) (0, 0, 0.00000000000000000000e+00) (0, 0, 0.00000000000000000000e+00) (0, 0, 0.00000000000000000000e+00) (0, 0, 0.00000000000000000000e+00) (0, 0, 0.00000000000000000000e+00) (0, 0, 0.00000000000000000000e+00) (0, 0, 0.00000000000000000000e+00) (0, 0, 0.00000000000000000000e+00) (0, 0, 0.00000000000000000000e+00) (0, 0, 0.00000000000000000000e+00) (0, 0, 0.00000000000000000000e+00) (0, 0, 0.00000000000000000000e+00) (0, 0, 0.00000000000000000000e+00) (0, 0, 0.00000000000000000000e+00) (0, 0, 0.00000000000000000000e+00) (0, 0, 0.00000000000000000000e+00) (0, 0, 0.00000000000000000000e+00) (0, 0, 0.00000000000000000000e+00) (0, 0, 0.00000000000000000000e+00) (0, 0, 0.00000000000000000000e+00) (0, 0, 0.00000000000000000000e+00) (0, 0, 0.00000000000000000000e+00) (0, 0, 0.00000000000000000000e+00) (0, 0, 0.00000000000000000000e+00) (0, 0, 0.00000000000000000000e+00) (0, 0, 0.00000000000000000000e+00) (0, 0, 0.00000000000000000000e+00) (0, 0, 0.00000000000000000000e+00) (0, 0, 0.00000000000000000000e+00) (0, 0, 0.00000000000000000000e+00) (0, 0, 0.00000000000000000000e+00) (0, 0, 0.00000000000000000000e+00) (0, 0, 0.00000000000000000000e+00) (0, 0, 0.00000000000000000000e+00) (0, 0, 0.00000000000000000000e+00) (0, 0, 0.00000000000000000000e+00) (0, 0, 0.00000000000000000000e+00) (0, 0, 0.00000000000000000000e+00) (0, 0, 0.00000000000000000000e+00) (0, 0, 0.00000000000000000000e+00) (0, 0, 0.00000000000000000000e+00) (0, 0, 0.00000000000000000000e+00) (0, 0, 0.00000000000000000000e+00) (0, 0, 0.00000000000000000000e+00) (0, 0, 0.00000000000000000000e+00) (0, 0, 0.00000000000000000000e+00) (0, 0, 0.00000000000000000000e+00) (0, 0, 0.00000000000000000000e+00) (0, 0, 0.00000000000000000000e+00) (0, 0, 0.00000000000000000000e+00) (0, 0, 0.00000000000000000000e+00) (0, 0, 0.00000000000000000000e+00) (0, 0, 0.00000000000000000000e+00) (0, 0, 0.00000000000000000000e+00) (0, 0, 0.00000000000000000000e+00) (0, 0, 0.00000000000000000000e+00) (0, 0, 0.00000000000000000000e+00) (0, 0, 0.00000000000000000000e+00) (0, 0, 0.00000000000000000000e+00) (0, 0, 0.00000000000000000000e+00) (0, 0, 0.00000000000000000000e+00) (0, 0, 0.00000000000000000000e+00) (0, 0, 0.00000000000000000000e+00) (0, 0, 0.00000000000000000000e+00) (0, 0, 0.00000000000000000000e+00) (0, 0, 0.00000000000000000000e+00) (0, 0, 0.00000000000000000000e+00) (0, 0, 0.00000000000000000000e+00) (0, 0, 0.00000000000000000000e+00) (0, 0, 0.00000000000000000000e+00) (0, 0, 0.00000000000000000000e+00) (0, 0, 0.00000000000000000000e+00) (0, 0, 0.00000000000000000000e+00) (0, 0, 0.00000000000000000000e+00) (0, 0, 0.00000000000000000000e+00) (0, 0, 0.00000000000000000000e+00) (0, 0, 0.00000000000000000000e+00) (0, 0, 0.00000000000000000000e+00) (0, 0, 0.00000000000000000000e+00) (0, 0, 0.00000000000000000000e+00) (0, 0, 0.00000000000000000000e+00) (0, 0, 0.00000000000000000000e+00) (0, 0, 0.00000000000000000000e+00) (0, 0, 0.00000000000000000000e+00) (0, 0, 0.00000000000000000000e+00) (0, 0, 0.00000000000000000000e+00) (0, 0, 0.00000000000000000000e+00) (0, 0, 0.00000000000000000000e+00) (0, 0, 0.00000000000000000000e+00) (0, 0, 0.00000000000000000000e+00) (0, 0, 0.00000000000000000000e+00) (0, 0, 0.00000000000000000000e+00) (0, 0, 0.00000000000000000000e+00) (0, 0, 0.00000000000000000000e+00) (0, 0, 0.00000000000000000000e+00) (0, 0, 0.00000000000000000000e+00) (0, 0, 0.00000000000000000000e+00) (0, 0, 0.00000000000000000000e+00) (0, 0, 0.00000000000000000000e+00) (0, 0, 0.00000000000000000000e+00) (0, 0, 0.00000000000000000000e+00) (0, 0, 0.00000000000000000000e+00) (0, 0, 0.00000000000000000000e+00) (0, 0, 0.00000000000000000000e+00) (0, 0, 0.00000000000000000000e+00) (0, 0, 0.00000000000000000000e+00) (0, 0, 0.00000000000000000000e+00) (0, 0, 0.00000000000000000000e+00) (0, 0, 0.00000000000000000000e+00) (0, 0, 0.00000000000000000000e+00) (0, 0, 0.00000000000000000000e+00) (0, 0, 0.00000000000000000000e+00) (0, 0, 0.00000000000000000000e+00) (0, 0, 0.00000000000000000000e+00) (0, 0, 0.00000000000000000000e+00) (0, 0, 0.00000000000000000000e+00) (0, 0, 0.00000000000000000000e+00) (0, 0, 0.00000000000000000000e+00) (0, 0, 0.00000000000000000000e+00) (0, 0, 0.00000000000000000000e+00) (0, 0, 0.00000000000000000000e+00) (0, 0, 0.00000000000000000000e+00) (0, 0, 0.00000000000000000000e+00) (0, 0, 0.00000000000000000000e+00) (0, 0, 0.00000000000000000000e+00) (0, 0, 0.00000000000000000000e+00) (0, 0, 0.00000000000000000000e+00) (0, 0, 0.00000000000000000000e+00) (0, 0, 0.00000000000000000000e+00) (0, 0, 0.00000000000000000000e+00) (0, 0, 0.00000000000000000000e+00) (0, 0, 0.00000000000000000000e+00) (0, 0, 0.00000000000000000000e+00) (0, 0, 0.00000000000000000000e+00) (0, 0, 0.00000000000000000000e+00) (0, 0, 0.00000000000000000000e+00) (0, 0, 0.00000000000000000000e+00) (0, 0, 0.00000000000000000000e+00) (0, 0, 0.00000000000000000000e+00) (0, 0, 0.00000000000000000000e+00) (0, 0, 0.00000000000000000000e+00) (0, 0, 0.00000000000000000000e+00) (0, 0, 0.00000000000000000000e+00) (0, 0, 0.00000000000000000000e+00) (0, 0, 0.00000000000000000000e+00) (0, 0, 0.00000000000000000000e+00) (0, 0, 0.00000000000000000000e+00) (0, 0, 0.00000000000000000000e+00) (0, 0, 0.00000000000000000000e+00) (0, 0, 0.00000000000000000000e+00) (0, 0, 0.00000000000000000000e+00) (0, 0, 0.00000000000000000000e+00) (0, 0, 0.00000000000000000000e+00) (0, 0, 0.00000000000000000000e+00) (0, 0, 0.00000000000000000000e+00) (0, 0, 0.00000000000000000000e+00) (0, 0, 0.00000000000000000000e+00) (0, 0, 0.00000000000000000000e+00) (0, 0, 0.00000000000000000000e+00) (0, 0, 0.00000000000000000000e+00) (0, 0, 0.00000000000000000000e+00) (0, 0, 0.00000000000000000000e+00) (0, 0, 0.00000000000000000000e+00) (0, 0, 0.00000000000000000000e+00) (0, 0, 0.00000000000000000000e+00) (0, 0, 0.00000000000000000000e+00) (0, 0, 0.00000000000000000000e+00) (0, 0, 0.00000000000000000000e+00) (0, 0, 0.00000000000000000000e+00) (0, 0, 0.00000000000000000000e+00) (0, 0, 0.00000000000000000000e+00) (0, 0, 0.00000000000000000000e+00) (0, 0, 0.00000000000000000000e+00) (0, 0, 0.00000000000000000000e+00) (0, 0, 0.00000000000000000000e+00) (0, 0, 0.00000000000000000000e+00) (0, 0, 0.00000000000000000000e+00) (0, 0, 0.00000000000000000000e+00) (0, 0, 0.00000000000000000000e+00) (0, 0, 0.00000000000000000000e+00) (0, 0, 0.00000000000000000000e+00) (0, 0, 0.00000000000000000000e+00) (0, 0, 0.00000000000000000000e+00) (0, 0, 0.00000000000000000000e+00) (0, 0, 0.00000000000000000000e+00) (0, 0, 0.00000000000000000000e+00) (0, 0, 0.00000000000000000000e+00) (0, 0, 0.00000000000000000000e+00) (0, 0, 0.00000000000000000000e+00) (0, 0, 0.00000000000000000000e+00) (0, 0, 0.00000000000000000000e+00) (0, 0, 0.00000000000000000000e+00) (0, 0, 0.00000000000000000000e+00) (0, 0, 0.00000000000000000000e+00) (0, 0, 0.00000000000000000000e+00) (0, 0, 0.00000000000000000000e+00) (0, 0, 0.00000000000000000000e+00) (0, 0, 0.00000000000000000000e+00) (0, 0, 0.00000000000000000000e+00) (0, 0, 0.00000000000000000000e+00) (0, 0, 0.00000000000000000000e+00) (0, 0, 0.00000000000000000000e+00) (0, 0, 0.00000000000000000000e+00) (0, 0, 0.00000000000000000000e+00) (0, 0, 0.00000000000000000000e+00) (0, 0, 0.00000000000000000000e+00) (0, 0, 0.00000000000000000000e+00) (0, 0, 0.00000000000000000000e+00) (0, 0, 0.00000000000000000000e+00) (0, 0, 0.00000000000000000000e+00) (0, 0, 0.00000000000000000000e+00) (0, 0, 0.00000000000000000000e+00) (0, 0, 0.00000000000000000000e+00) (0, 0, 0.00000000000000000000e+00) (0, 0, 0.00000000000000000000e+00) (0, 0, 0.00000000000000000000e+00) (0, 0, 0.00000000000000000000e+00) (0, 0, 0.00000000000000000000e+00) (0, 0, 0.00000000000000000000e+00) (0, 0, 0.00000000000000000000e+00) (0, 0, 0.00000000000000000000e+00) (0, 0, 0.00000000000000000000e+00) (0, 0, 0.00000000000000000000e+00) (0, 0, 0.00000000000000000000e+00) (0, 0, 0.00000000000000000000e+00) (0, 0, 0.00000000000000000000e+00) (0, 0, 0.00000000000000000000e+00) (0, 0, 0.00000000000000000000e+00) (0, 0, 0.00000000000000000000e+00) (0, 0, 0.00000000000000000000e+00) (0, 0, 0.00000000000000000000e+00) (0, 0, 0.00000000000000000000e+00) (0, 0, 0.00000000000000000000e+00) (0, 0, 0.00000000000000000000e+00) (0, 0, 0.00000000000000000000e+00) (0, 0, 0.00000000000000000000e+00) (0, 0, 0.00000000000000000000e+00) (0, 0, 0.00000000000000000000e+00) (0, 0, 0.00000000000000000000e+00) (0, 0, 0.00000000000000000000e+00) (0, 0, 0.00000000000000000000e+00) (0, 0, 0.00000000000000000000e+00) (0, 0, 0.00000000000000000000e+00) (0, 0, 0.00000000000000000000e+00) (0, 0, 0.00000000000000000000e+00) (0, 0, 0.00000000000000000000e+00) (0, 0, 0.00000000000000000000e+00) (0, 0, 0.00000000000000000000e+00) (0, 0, 0.00000000000000000000e+00) (0, 0, 0.00000000000000000000e+00) (0, 0, 0.00000000000000000000e+00) (0, 0, 0.00000000000000000000e+00) (0, 0, 0.00000000000000000000e+00) (0, 0, 0.00000000000000000000e+00) (0, 0, 0.00000000000000000000e+00) (0, 0, 0.00000000000000000000e+00) (0, 0, 0.00000000000000000000e+00) (0, 0, 0.00000000000000000000e+00) (0, 0, 0.00000000000000000000e+00) (0, 0, 0.00000000000000000000e+00) (0, 0, 0.00000000000000000000e+00) (0, 0, 0.00000000000000000000e+00) (0, 0, 0.00000000000000000000e+00) (0, 0, 0.00000000000000000000e+00) (0, 0, 0.00000000000000000000e+00) (0, 0, 0.00000000000000000000e+00) (0, 0, 0.00000000000000000000e+00) (0, 0, 0.00000000000000000000e+00) (0, 0, 0.00000000000000000000e+00) (0, 0, 0.00000000000000000000e+00) (0, 0, 0.00000000000000000000e+00) (0, 0, 0.00000000000000000000e+00) (0, 0, 0.00000000000000000000e+00) (0, 0, 0.00000000000000000000e+00) (0, 0, 0.00000000000000000000e+00) (0, 0, 0.00000000000000000000e+00) (0, 0, 0.00000000000000000000e+00) (0, 0, 0.00000000000000000000e+00) (0, 0, 0.00000000000000000000e+00) (0, 0, 0.00000000000000000000e+00) (0, 0, 0.00000000000000000000e+00) (0, 0, 0.00000000000000000000e+00) (0, 0, 0.00000000000000000000e+00) (0, 0, 0.00000000000000000000e+00) (0, 0, 0.00000000000000000000e+00) (0, 0, 0.00000000000000000000e+00) (0, 0, 0.00000000000000000000e+00) (0, 0, 0.00000000000000000000e+00) (0, 0, 0.00000000000000000000e+00) (0, 0, 0.00000000000000000000e+00) (0, 0, 0.00000000000000000000e+00) (0, 0, 0.00000000000000000000e+00) (0, 0, 0.00000000000000000000e+00) (0, 0, 0.00000000000000000000e+00) (0, 0, 0.00000000000000000000e+00) (0, 0, 0.00000000000000000000e+00) (0, 0, 0.00000000000000000000e+00) (0, 0, 0.00000000000000000000e+00) (0, 0, 0.00000000000000000000e+00) (0, 0, 0.00000000000000000000e+00) (0, 0, 0.00000000000000000000e+00) (0, 0, 0.00000000000000000000e+00) (0, 0, 0.00000000000000000000e+00) (0, 0, 0.00000000000000000000e+00) (0, 0, 0.00000000000000000000e+00) (0, 0, 0.00000000000000000000e+00) (0, 0, 0.00000000000000000000e+00) (0, 0, 0.00000000000000000000e+00) (0, 0, 0.00000000000000000000e+00) (0, 0, 0.00000000000000000000e+00) (0, 0, 0.00000000000000000000e+00) (0, 0, 0.00000000000000000000e+00) (0, 0, 0.00000000000000000000e+00) (0, 0, 0.00000000000000000000e+00) (0, 0, 0.00000000000000000000e+00) (0, 0, 0.00000000000000000000e+00) (0, 0, 0.00000000000000000000e+00) (0, 0, 0.00000000000000000000e+00) (0, 0, 0.00000000000000000000e+00) (0, 0, 0.00000000000000000000e+00) (0, 0, 0.00000000000000000000e+00) (0, 0, 0.00000000000000000000e+00) (0, 0, 0.00000000000000000000e+00) (0, 0, 0.00000000000000000000e+00) (0, 0, 0.00000000000000000000e+00) (0, 0, 0.00000000000000000000e+00) (0, 0, 0.00000000000000000000e+00) (0, 0, 0.00000000000000000000e+00) (0, 0, 0.00000000000000000000e+00) (0, 0, 0.00000000000000000000e+00) (0, 0, 0.00000000000000000000e+00) (0, 0, 0.00000000000000000000e+00) (0, 0, 0.00000000000000000000e+00) (0, 0, 0.00000000000000000000e+00) (0, 0, 0.00000000000000000000e+00) (0, 0, 0.00000000000000000000e+00) (0, 0, 0.00000000000000000000e+00) (0, 0, 0.00000000000000000000e+00) (0, 0, 0.00000000000000000000e+00) (0, 0, 0.00000000000000000000e+00) (0, 0, 0.00000000000000000000e+00) (0, 0, 0.00000000000000000000e+00) (0, 0, 0.00000000000000000000e+00) (0, 0, 0.00000000000000000000e+00) (0, 0, 0.00000000000000000000e+00) (0, 0, 0.00000000000000000000e+00) (0, 0, 0.00000000000000000000e+00) (0, 0, 0.00000000000000000000e+00) (0, 0, 0.00000000000000000000e+00) (0, 0, 0.00000000000000000000e+00) (0, 0, 0.00000000000000000000e+00) (0, 0, 0.00000000000000000000e+00) (0, 0, 0.00000000000000000000e+00) (0, 0, 0.00000000000000000000e+00) (0, 0, 0.00000000000000000000e+00) (0, 0, 0.00000000000000000000e+00) (0, 0, 0.00000000000000000000e+00) (0, 0, 0.00000000000000000000e+00) (0, 0, 0.00000000000000000000e+00) (0, 0, 0.00000000000000000000e+00) (0, 0, 0.00000000000000000000e+00) (0, 0, 0.00000000000000000000e+00) (0, 0, 0.00000000000000000000e+00) (0, 0, 0.00000000000000000000e+00) (0, 0, 0.00000000000000000000e+00) (0, 0, 0.00000000000000000000e+00) (0, 0, 0.00000000000000000000e+00) (0, 0, 0.00000000000000000000e+00) (0, 0, 0.00000000000000000000e+00) (0, 0, 0.00000000000000000000e+00) (0, 0, 0.00000000000000000000e+00) (0, 0, 0.00000000000000000000e+00) (0, 0, 0.00000000000000000000e+00) (0, 0, 0.00000000000000000000e+00) (0, 0, 0.00000000000000000000e+00) (0, 0, 0.00000000000000000000e+00) (0, 0, 0.00000000000000000000e+00) (0, 0, 0.00000000000000000000e+00) (0, 0, 0.00000000000000000000e+00) (0, 0, 0.00000000000000000000e+00) (0, 0, 0.00000000000000000000e+00) (0, 0, 0.00000000000000000000e+00) (0, 0, 0.00000000000000000000e+00) (0, 0, 0.00000000000000000000e+00) (0, 0, 0.00000000000000000000e+00) (0, 0, 0.00000000000000000000e+00) (0, 0, 0.00000000000000000000e+00) (0, 0, 0.00000000000000000000e+00) (0, 0, 0.00000000000000000000e+00) (0, 0, 0.00000000000000000000e+00) (0, 0, 0.00000000000000000000e+00) (0, 0, 0.00000000000000000000e+00) (0, 0, 0.00000000000000000000e+00) (0, 0, 0.00000000000000000000e+00) (0, 0, 0.00000000000000000000e+00) (0, 0, 0.00000000000000000000e+00) (0, 0, 0.00000000000000000000e+00) (0, 0, 0.00000000000000000000e+00) (0, 0, 0.00000000000000000000e+00) (0, 0, 0.00000000000000000000e+00) (0, 0, 0.00000000000000000000e+00) (0, 0, 0.00000000000000000000e+00) (0, 0, 0.00000000000000000000e+00) (0, 0, 0.00000000000000000000e+00) (0, 0, 0.00000000000000000000e+00) (0, 0, 0.00000000000000000000e+00) (0, 0, 0.00000000000000000000e+00) (0, 0, 0.00000000000000000000e+00) (0, 0, 0.00000000000000000000e+00) (0, 0, 0.00000000000000000000e+00) (0, 0, 0.00000000000000000000e+00) (0, 0, 0.00000000000000000000e+00) (0, 0, 0.00000000000000000000e+00) (0, 0, 0.00000000000000000000e+00) (0, 0, 0.00000000000000000000e+00) (0, 0, 0.00000000000000000000e+00) (0, 0, 0.00000000000000000000e+00) (0, 0, 0.00000000000000000000e+00) (0, 0, 0.00000000000000000000e+00) (0, 0, 0.00000000000000000000e+00) (0, 0, 0.00000000000000000000e+00) (0, 0, 0.00000000000000000000e+00) (0, 0, 0.00000000000000000000e+00) (0, 0, 0.00000000000000000000e+00) (0, 0, 0.00000000000000000000e+00) (0, 0, 0.00000000000000000000e+00) (0, 0, 0.00000000000000000000e+00) (0, 0, 0.00000000000000000000e+00) (0, 0, 0.00000000000000000000e+00) (0, 0, 0.00000000000000000000e+00) (0, 0, 0.00000000000000000000e+00) (0, 0, 0.00000000000000000000e+00) (0, 0, 0.00000000000000000000e+00) (0, 0, 0.00000000000000000000e+00) (0, 0, 0.00000000000000000000e+00) (0, 0, 0.00000000000000000000e+00) (0, 0, 0.00000000000000000000e+00) (0, 0, 0.00000000000000000000e+00) (0, 0, 0.00000000000000000000e+00) (0, 0, 0.00000000000000000000e+00) (0, 0, 0.00000000000000000000e+00) (0, 0, 0.00000000000000000000e+00) (0, 0, 0.00000000000000000000e+00) (0, 0, 0.00000000000000000000e+00) (0, 0, 0.00000000000000000000e+00) (0, 0, 0.00000000000000000000e+00) (0, 0, 0.00000000000000000000e+00) (0, 0, 0.00000000000000000000e+00) (0, 0, 0.00000000000000000000e+00) (0, 0, 0.00000000000000000000e+00) (0, 0, 0.00000000000000000000e+00) (0, 0, 0.00000000000000000000e+00) (0, 0, 0.00000000000000000000e+00) (0, 0, 0.00000000000000000000e+00) (0, 0, 0.00000000000000000000e+00) (0, 0, 0.00000000000000000000e+00) (0, 0, 0.00000000000000000000e+00) (0, 0, 0.00000000000000000000e+00) (0, 0, 0.00000000000000000000e+00) (0, 0, 0.00000000000000000000e+00) (0, 0, 0.00000000000000000000e+00) (0, 0, 0.00000000000000000000e+00) (0, 0, 0.00000000000000000000e+00) (0, 0, 0.00000000000000000000e+00) (0, 0, 0.00000000000000000000e+00) (0, 0, 0.00000000000000000000e+00) (0, 0, 0.00000000000000000000e+00) (0, 0, 0.00000000000000000000e+00) (0, 0, 0.00000000000000000000e+00) (0, 0, 0.00000000000000000000e+00) (0, 0, 0.00000000000000000000e+00) (0, 0, 0.00000000000000000000e+00) (0, 0, 0.00000000000000000000e+00) (0, 0, 0.00000000000000000000e+00) (0, 0, 0.00000000000000000000e+00) (0, 0, 0.00000000000000000000e+00) (0, 0, 0.00000000000000000000e+00) (0, 0, 0.00000000000000000000e+00) (0, 0, 0.00000000000000000000e+00) (0, 0, 0.00000000000000000000e+00) (0, 0, 0.00000000000000000000e+00) (0, 0, 0.00000000000000000000e+00) (0, 0, 0.00000000000000000000e+00) (0, 0, 0.00000000000000000000e+00) (0, 0, 0.00000000000000000000e+00) (0, 0, 0.00000000000000000000e+00) (0, 0, 0.00000000000000000000e+00) (0, 0, 0.00000000000000000000e+00) (0, 0, 0.00000000000000000000e+00) (0, 0, 0.00000000000000000000e+00) (0, 0, 0.00000000000000000000e+00) (0, 0, 0.00000000000000000000e+00) (0, 0, 0.00000000000000000000e+00) (0, 0, 0.00000000000000000000e+00) (0, 0, 0.00000000000000000000e+00) (0, 0, 0.00000000000000000000e+00) (0, 0, 0.00000000000000000000e+00) (0, 0, 0.00000000000000000000e+00) (0, 0, 0.00000000000000000000e+00) (0, 0, 0.00000000000000000000e+00) (0, 0, 0.00000000000000000000e+00) (0, 0, 0.00000000000000000000e+00) (0, 0, 0.00000000000000000000e+00) (0, 0, 0.00000000000000000000e+00) (0, 0, 0.00000000000000000000e+00) (0, 0, 0.00000000000000000000e+00) (0, 0, 0.00000000000000000000e+00) (0, 0, 0.00000000000000000000e+00) (0, 0, 0.00000000000000000000e+00) (0, 0, 0.00000000000000000000e+00) (0, 0, 0.00000000000000000000e+00) (0, 0, 0.00000000000000000000e+00) (0, 0, 0.00000000000000000000e+00) (0, 0, 0.00000000000000000000e+00) (0, 0, 0.00000000000000000000e+00) (0, 0, 0.00000000000000000000e+00) (0, 0, 0.00000000000000000000e+00) (0, 0, 0.00000000000000000000e+00) (0, 0, 0.00000000000000000000e+00) (0, 0, 0.00000000000000000000e+00) (0, 0, 0.00000000000000000000e+00) (0, 0, 0.00000000000000000000e+00) (0, 0, 0.00000000000000000000e+00) (0, 0, 0.00000000000000000000e+00) (0, 0, 0.00000000000000000000e+00) (0, 0, 0.00000000000000000000e+00) (0, 0, 0.00000000000000000000e+00) (0, 0, 0.00000000000000000000e+00) (0, 0, 0.00000000000000000000e+00) (0, 0, 0.00000000000000000000e+00) (0, 0, 0.00000000000000000000e+00) (0, 0, 0.00000000000000000000e+00) (0, 0, 0.00000000000000000000e+00) (0, 0, 0.00000000000000000000e+00) (0, 0, 0.00000000000000000000e+00) (0, 0, 0.00000000000000000000e+00) (0, 0, 0.00000000000000000000e+00) (0, 0, 0.00000000000000000000e+00) (0, 0, 0.00000000000000000000e+00) (0, 0, 0.00000000000000000000e+00) (0, 0, 0.00000000000000000000e+00) (0, 0, 0.00000000000000000000e+00) (0, 0, 0.00000000000000000000e+00) (0, 0, 0.00000000000000000000e+00) (0, 0, 0.00000000000000000000e+00) (0, 0, 0.00000000000000000000e+00) (0, 0, 0.00000000000000000000e+00) (0, 0, 0.00000000000000000000e+00) (0, 0, 0.00000000000000000000e+00) (0, 0, 0.00000000000000000000e+00) (0, 0, 0.00000000000000000000e+00) (0, 0, 0.00000000000000000000e+00) (0, 0, 0.00000000000000000000e+00) (0, 0, 0.00000000000000000000e+00) (0, 0, 0.00000000000000000000e+00) (0, 0, 0.00000000000000000000e+00) (0, 0, 0.00000000000000000000e+00) (0, 0, 0.00000000000000000000e+00) (0, 0, 0.00000000000000000000e+00) (0, 0, 0.00000000000000000000e+00) (0, 0, 0.00000000000000000000e+00) (0, 0, 0.00000000000000000000e+00) (0, 0, 0.00000000000000000000e+00) (0, 0, 0.00000000000000000000e+00) (0, 0, 0.00000000000000000000e+00) (0, 0, 0.00000000000000000000e+00) (0, 0, 0.00000000000000000000e+00) (0, 0, 0.00000000000000000000e+00) (0, 0, 0.00000000000000000000e+00) (0, 0, 0.00000000000000000000e+00) (0, 0, 0.00000000000000000000e+00) (0, 0, 0.00000000000000000000e+00) (0, 0, 0.00000000000000000000e+00) (0, 0, 0.00000000000000000000e+00) (0, 0, 0.00000000000000000000e+00) (0, 0, 0.00000000000000000000e+00) (0, 0, 0.00000000000000000000e+00) (0, 0, 0.00000000000000000000e+00) (0, 0, 0.00000000000000000000e+00) (0, 0, 0.00000000000000000000e+00) (0, 0, 0.00000000000000000000e+00) (0, 0, 0.00000000000000000000e+00) (0, 0, 0.00000000000000000000e+00) (0, 0, 0.00000000000000000000e+00) (0, 0, 0.00000000000000000000e+00) (0, 0, 0.00000000000000000000e+00) (0, 0, 0.00000000000000000000e+00) (0, 0, 0.00000000000000000000e+00) (0, 0, 0.00000000000000000000e+00) (0, 0, 0.00000000000000000000e+00) (0, 0, 0.00000000000000000000e+00) (0, 0, 0.00000000000000000000e+00) (0, 0, 0.00000000000000000000e+00) (0, 0, 0.00000000000000000000e+00) (0, 0, 0.00000000000000000000e+00) (0, 0, 0.00000000000000000000e+00) (0, 0, 0.00000000000000000000e+00) (0, 0, 0.00000000000000000000e+00) (0, 0, 0.00000000000000000000e+00) (0, 0, 0.00000000000000000000e+00) (0, 0, 0.00000000000000000000e+00) (0, 0, 0.00000000000000000000e+00) (0, 0, 0.00000000000000000000e+00) (0, 0, 0.00000000000000000000e+00) (0, 0, 0.00000000000000000000e+00) (0, 0, 0.00000000000000000000e+00) (0, 0, 0.00000000000000000000e+00) (0, 0, 0.00000000000000000000e+00) (0, 0, 0.00000000000000000000e+00) (0, 0, 0.00000000000000000000e+00) (0, 0, 0.00000000000000000000e+00) (0, 0, 0.00000000000000000000e+00) (0, 0, 0.00000000000000000000e+00) (0, 0, 0.00000000000000000000e+00) (0, 0, 0.00000000000000000000e+00) (0, 0, 0.00000000000000000000e+00) (0, 0, 0.00000000000000000000e+00) (0, 0, 0.00000000000000000000e+00) (0, 0, 0.00000000000000000000e+00) (0, 0, 0.00000000000000000000e+00) (0, 0, 0.00000000000000000000e+00) (0, 0, 0.00000000000000000000e+00) (0, 0, 0.00000000000000000000e+00) (0, 0, 0.00000000000000000000e+00) (0, 0, 0.00000000000000000000e+00) (0, 0, 0.00000000000000000000e+00) (0, 0, 0.00000000000000000000e+00) (0, 0, 0.00000000000000000000e+00) (0, 0, 0.00000000000000000000e+00) (0, 0, 0.00000000000000000000e+00) (0, 0, 0.00000000000000000000e+00) (0, 0, 0.00000000000000000000e+00) (0, 0, 0.00000000000000000000e+00) (0, 0, 0.00000000000000000000e+00) (0, 0, 0.00000000000000000000e+00) (0, 0, 0.00000000000000000000e+00) (0, 0, 0.00000000000000000000e+00) (0, 0, 0.00000000000000000000e+00) (0, 0, 0.00000000000000000000e+00) (0, 0, 0.00000000000000000000e+00) (0, 0, 0.00000000000000000000e+00) (0, 0, 0.00000000000000000000e+00) (0, 0, 0.00000000000000000000e+00) (0, 0, 0.00000000000000000000e+00) (0, 0, 0.00000000000000000000e+00) (0, 0, 0.00000000000000000000e+00) (0, 0, 0.00000000000000000000e+00) (0, 0, 0.00000000000000000000e+00) (0, 0, 0.00000000000000000000e+00) (0, 0, 0.00000000000000000000e+00) (0, 0, 0.00000000000000000000e+00) (0, 0, 0.00000000000000000000e+00) (0, 0, 0.00000000000000000000e+00) (0, 0, 0.00000000000000000000e+00) (0, 0, 0.00000000000000000000e+00) (0, 0, 0.00000000000000000000e+00) (0, 0, 0.00000000000000000000e+00) (0, 0, 0.00000000000000000000e+00) (0, 0, 0.00000000000000000000e+00) (0, 0, 0.00000000000000000000e+00) (0, 0, 0.00000000000000000000e+00) (0, 0, 0.00000000000000000000e+00) (0, 0, 0.00000000000000000000e+00) (0, 0, 0.00000000000000000000e+00) (0, 0, 0.00000000000000000000e+00) (0, 0, 0.00000000000000000000e+00) (0, 0, 0.00000000000000000000e+00) (0, 0, 0.00000000000000000000e+00) (0, 0, 0.00000000000000000000e+00) (0, 0, 0.00000000000000000000e+00) (0, 0, 0.00000000000000000000e+00) (0, 0, 0.00000000000000000000e+00) (0, 0, 0.00000000000000000000e+00) (0, 0, 0.00000000000000000000e+00) (0, 0, 0.00000000000000000000e+00) (0, 0, 0.00000000000000000000e+00) (0, 0, 0.00000000000000000000e+00) (0, 0, 0.00000000000000000000e+00) (0, 0, 0.00000000000000000000e+00) (0, 0, 0.00000000000000000000e+00) (0, 0, 0.00000000000000000000e+00) (0, 0, 0.00000000000000000000e+00) (0, 0, 0.00000000000000000000e+00) (0, 0, 0.00000000000000000000e+00) (0, 0, 0.00000000000000000000e+00) (0, 0, 0.00000000000000000000e+00) (0, 0, 0.00000000000000000000e+00) (0, 0, 0.00000000000000000000e+00) (0, 0, 0.00000000000000000000e+00) (0, 0, 0.00000000000000000000e+00) (0, 0, 0.00000000000000000000e+00) (0, 0, 0.00000000000000000000e+00) (0, 0, 0.00000000000000000000e+00) (0, 0, 0.00000000000000000000e+00) (0, 0, 0.00000000000000000000e+00) (0, 0, 0.00000000000000000000e+00) (0, 0, 0.00000000000000000000e+00) (0, 0, 0.00000000000000000000e+00) (0, 0, 0.00000000000000000000e+00) (0, 0, 0.00000000000000000000e+00) (0, 0, 0.00000000000000000000e+00) (0, 0, 0.00000000000000000000e+00) (0, 0, 0.00000000000000000000e+00) (0, 0, 0.00000000000000000000e+00) (0, 0, 0.00000000000000000000e+00) (0, 0, 0.00000000000000000000e+00) (0, 0, 0.00000000000000000000e+00) (0, 0, 0.00000000000000000000e+00) (0, 0, 0.00000000000000000000e+00) (0, 0, 0.00000000000000000000e+00) (0, 0, 0.00000000000000000000e+00) (0, 0, 0.00000000000000000000e+00) (0, 0, 0.00000000000000000000e+00) (0, 0, 0.00000000000000000000e+00) (0, 0, 0.00000000000000000000e+00) (0, 0, 0.00000000000000000000e+00) (0, 0, 0.00000000000000000000e+00) (0, 0, 0.00000000000000000000e+00) (0, 0, 0.00000000000000000000e+00) (0, 0, 0.00000000000000000000e+00) (0, 0, 0.00000000000000000000e+00) (0, 0, 0.00000000000000000000e+00) (0, 0, 0.00000000000000000000e+00) (0, 0, 0.00000000000000000000e+00) (0, 0, 0.00000000000000000000e+00) (0, 0, 0.00000000000000000000e+00) (0, 0, 0.00000000000000000000e+00) (0, 0, 0.00000000000000000000e+00) (0, 0, 0.00000000000000000000e+00) (0, 0, 0.00000000000000000000e+00) (0, 0, 0.00000000000000000000e+00) (0, 0, 0.00000000000000000000e+00) (0, 0, 0.00000000000000000000e+00) (0, 0, 0.00000000000000000000e+00) (0, 0, 0.00000000000000000000e+00) (0, 0, 0.00000000000000000000e+00) (0, 0, 0.00000000000000000000e+00) (0, 0, 0.00000000000000000000e+00) (0, 0, 0.00000000000000000000e+00) (0, 0, 0.00000000000000000000e+00) (0, 0, 0.00000000000000000000e+00) (0, 0, 0.00000000000000000000e+00) (0, 0, 0.00000000000000000000e+00) (0, 0, 0.00000000000000000000e+00) (0, 0, 0.00000000000000000000e+00) (0, 0, 0.00000000000000000000e+00) (0, 0, 0.00000000000000000000e+00) (0, 0, 0.00000000000000000000e+00) (0, 0, 0.00000000000000000000e+00) (0, 0, 0.00000000000000000000e+00) (0, 0, 0.00000000000000000000e+00) (0, 0, 0.00000000000000000000e+00) (0, 0, 0.00000000000000000000e+00) (0, 0, 0.00000000000000000000e+00) (0, 0, 0.00000000000000000000e+00) (0, 0, 0.00000000000000000000e+00) (0, 0, 0.00000000000000000000e+00) (0, 0, 0.00000000000000000000e+00) (0, 0, 0.00000000000000000000e+00) (0, 0, 0.00000000000000000000e+00) (0, 0, 0.00000000000000000000e+00) (0, 0, 0.00000000000000000000e+00) (0, 0, 0.00000000000000000000e+00) (0, 0, 0.00000000000000000000e+00) (0, 0, 0.00000000000000000000e+00) (0, 0, 0.00000000000000000000e+00) (0, 0, 0.00000000000000000000e+00) (0, 0, 0.00000000000000000000e+00) (0, 0, 0.00000000000000000000e+00) (0, 0, 0.00000000000000000000e+00) (0, 0, 0.00000000000000000000e+00) (0, 0, 0.00000000000000000000e+00) (0, 0, 0.00000000000000000000e+00) (0, 0, 0.00000000000000000000e+00) (0, 0, 0.00000000000000000000e+00) (0, 0, 0.00000000000000000000e+00) (0, 0, 0.00000000000000000000e+00) (0, 0, 0.00000000000000000000e+00) (0, 0, 0.00000000000000000000e+00) (0, 0, 0.00000000000000000000e+00) (0, 0, 0.00000000000000000000e+00) (0, 0, 0.00000000000000000000e+00) (0, 0, 0.00000000000000000000e+00) (0, 0, 0.00000000000000000000e+00) (0, 0, 0.00000000000000000000e+00) (0, 0, 0.00000000000000000000e+00) (0, 0, 0.00000000000000000000e+00) (0, 0, 0.00000000000000000000e+00) (0, 0, 0.00000000000000000000e+00) (0, 0, 0.00000000000000000000e+00) (0, 0, 0.00000000000000000000e+00) (0, 0, 0.00000000000000000000e+00) (0, 0, 0.00000000000000000000e+00) (0, 0, 0.00000000000000000000e+00) (0, 0, 0.00000000000000000000e+00) (0, 0, 0.00000000000000000000e+00) (0, 0, 0.00000000000000000000e+00) (0, 0, 0.00000000000000000000e+00) (0, 0, 0.00000000000000000000e+00) (0, 0, 0.00000000000000000000e+00) (0, 0, 0.00000000000000000000e+00) (0, 0, 0.00000000000000000000e+00) (0, 0, 0.00000000000000000000e+00) (0, 0, 0.00000000000000000000e+00) (0, 0, 0.00000000000000000000e+00) (0, 0, 0.00000000000000000000e+00) (0, 0, 0.00000000000000000000e+00) (0, 0, 0.00000000000000000000e+00) (0, 0, 0.00000000000000000000e+00) (0, 0, 0.00000000000000000000e+00) (0, 0, 0.00000000000000000000e+00) (0, 0, 0.00000000000000000000e+00) (0, 0, 0.00000000000000000000e+00) (0, 0, 0.00000000000000000000e+00) (901, 6, 4.00000000000000022204e-01) (901, 6, 4.00000000000000022204e-01) (901, 6, 4.00000000000000022204e-01) (901, 6, 4.00000000000000022204e-01) (901, 6, 4.00000000000000022204e-01) (901, 6, 4.00000000000000022204e-01) (901, 6, 4.00000000000000022204e-01) (901, 6, 4.00000000000000022204e-01) (901, 6, 4.00000000000000022204e-01) (901, 6, 4.00000000000000022204e-01) (901, 6, 4.00000000000000022204e-01) (901, 6, 4.00000000000000022204e-01) (901, 6, 4.00000000000000022204e-01) (901, 6, 4.00000000000000022204e-01) (901, 6, 4.00000000000000022204e-01) (901, 6, 4.00000000000000022204e-01) (901, 6, 4.00000000000000022204e-01) (901, 6, 4.00000000000000022204e-01) (901, 6, 4.00000000000000022204e-01) (901, 6, 4.00000000000000022204e-01) (901, 6, 4.00000000000000022204e-01) (901, 6, 4.00000000000000022204e-01) (901, 6, 4.00000000000000022204e-01) (901, 6, 4.00000000000000022204e-01) (901, 6, 4.00000000000000022204e-01) (901, 6, 4.00000000000000022204e-01) (901, 6, 4.00000000000000022204e-01) (901, 6, 4.00000000000000022204e-01) (901, 6, 4.00000000000000022204e-01) (901, 6, 4.00000000000000022204e-01) (901, 6, 4.00000000000000022204e-01) (901, 6, 4.00000000000000022204e-01) (901, 6, 4.00000000000000022204e-01) (901, 6, 4.00000000000000022204e-01) (901, 6, 4.00000000000000022204e-01) (901, 6, 4.00000000000000022204e-01) (901, 6, 4.00000000000000022204e-01) (901, 6, 4.00000000000000022204e-01) (901, 6, 4.00000000000000022204e-01) (901, 6, 4.00000000000000022204e-01) (901, 6, 4.00000000000000022204e-01) (901, 6, 4.00000000000000022204e-01) (901, 6, 4.00000000000000022204e-01) (901, 6, 4.00000000000000022204e-01) (901, 6, 4.00000000000000022204e-01) (901, 6, 4.00000000000000022204e-01) (901, 6, 4.00000000000000022204e-01) (901, 6, 4.00000000000000022204e-01) (901, 6, 4.00000000000000022204e-01) (901, 6, 4.00000000000000022204e-01) (901, 6, 4.00000000000000022204e-01) (901, 6, 4.00000000000000022204e-01) (901, 6, 4.00000000000000022204e-01) (901, 6, 4.00000000000000022204e-01) (901, 6, 4.00000000000000022204e-01) (901, 6, 4.00000000000000022204e-01) (901, 6, 4.00000000000000022204e-01) (901, 6, 4.00000000000000022204e-01) (901, 6, 4.00000000000000022204e-01) (901, 6, 4.00000000000000022204e-01) (901, 6, 4.00000000000000022204e-01) (901, 6, 4.00000000000000022204e-01) (901, 6, 4.00000000000000022204e-01) (901, 6, 4.00000000000000022204e-01) (901, 6, 4.00000000000000022204e-01) (901, 6, 4.00000000000000022204e-01) (901, 6, 4.00000000000000022204e-01) (901, 6, 4.00000000000000022204e-01) (901, 6, 4.00000000000000022204e-01) (901, 6, 4.00000000000000022204e-01) (901, 6, 4.00000000000000022204e-01) (901, 6, 4.00000000000000022204e-01) (901, 6, 4.00000000000000022204e-01) (901, 6, 4.00000000000000022204e-01) (901, 6, 4.00000000000000022204e-01) (901, 6, 4.00000000000000022204e-01) (901, 6, 4.00000000000000022204e-01) (901, 6, 4.00000000000000022204e-01) (901, 6, 4.00000000000000022204e-01) (901, 6, 4.00000000000000022204e-01) (901, 6, 4.00000000000000022204e-01) (901, 6, 4.00000000000000022204e-01) (901, 6, 4.00000000000000022204e-01) (901, 6, 4.00000000000000022204e-01) (901, 6, 4.00000000000000022204e-01) (901, 6, 4.00000000000000022204e-01) (901, 6, 4.00000000000000022204e-01) (901, 6, 4.00000000000000022204e-01) (901, 6, 4.00000000000000022204e-01) (901, 6, 4.00000000000000022204e-01) (901, 6, 4.00000000000000022204e-01) (901, 6, 4.00000000000000022204e-01) (901, 6, 4.00000000000000022204e-01) (901, 6, 4.00000000000000022204e-01) (901, 6, 4.00000000000000022204e-01) (901, 6, 4.00000000000000022204e-01) (901, 6, 4.00000000000000022204e-01) (901, 6, 4.00000000000000022204e-01) (901, 6, 4.00000000000000022204e-01) (901, 6, 4.00000000000000022204e-01) (0, 6, 4.00000000000000022204e-01) (101, 6, 4.00000000000000022204e-01) (101, 6, 4.00000000000000022204e-01) (101, 6, 4.00000000000000022204e-01) (101, 6, 4.00000000000000022204e-01) (101, 6, 4.00000000000000022204e-01) (101, 6, 4.00000000000000022204e-01) (101, 6, 4.00000000000000022204e-01) (101, 6, 4.00000000000000022204e-01) (101, 6, 4.00000000000000022204e-01) (101, 6, 4.00000000000000022204e-01) (101, 6, 4.00000000000000022204e-01) (101, 6, 4.00000000000000022204e-01) (101, 6, 4.00000000000000022204e-01) (101, 6, 4.00000000000000022204e-01) (101, 6, 4.00000000000000022204e-01) (101, 6, 4.00000000000000022204e-01) (101, 6, 4.00000000000000022204e-01) (101, 6, 4.00000000000000022204e-01) (101, 6, 4.00000000000000022204e-01) (101, 6, 4.00000000000000022204e-01) (101, 6, 4.00000000000000022204e-01) (101, 6, 4.00000000000000022204e-01) (101, 6, 4.00000000000000022204e-01) (101, 6, 4.00000000000000022204e-01) (101, 6, 4.00000000000000022204e-01) (101, 6, 4.00000000000000022204e-01) (101, 6, 4.00000000000000022204e-01) (101, 6, 4.00000000000000022204e-01) (101, 6, 4.00000000000000022204e-01) (101, 6, 4.00000000000000022204e-01) (101, 6, 4.00000000000000022204e-01) (101, 6, 4.00000000000000022204e-01) (101, 6, 4.00000000000000022204e-01) (101, 6, 4.00000000000000022204e-01) (101, 6, 4.00000000000000022204e-01) (101, 6, 4.00000000000000022204e-01) (101, 6, 4.00000000000000022204e-01) (101, 6, 4.00000000000000022204e-01) (101, 6, 4.00000000000000022204e-01) (101, 6, 4.00000000000000022204e-01) (101, 6, 4.00000000000000022204e-01) (101, 6, 4.00000000000000022204e-01) (101, 6, 4.00000000000000022204e-01) (101, 6, 4.00000000000000022204e-01) (101, 6, 4.00000000000000022204e-01) (101, 6, 4.00000000000000022204e-01) (101, 6, 4.00000000000000022204e-01) (0, 6, 4.00000000000000022204e-01) 
connections (connected_to_neuron, weight)=(0, 4.97528412639890518787e-02) (1, -3.87233174145425740331e-02) (2, 6.00820519355610340589e-03) (3, -4.38464160976044584062e-02) (4, -1.26650177818637466043e-01) (5, -6.89248605612332726489e-02) (6, 2.44362712856714958676e-02) (7, -5.51609336379582093635e-02) (8, -2.19438577557417198449e-02) (9, 5.48199570500406685447e-02) (10, -4.06764597064939170679e-02) (11, -1.14484320431249078642e-01) (12, -7.12937989448236969503e-02) (13, -5.83149831926511250102e-02) (14, 2.01115564425302477403e-02) (15, 6.07529983837915774081e-02) (16, -7.84271030704664778854e-02) (17, -7.93100272187876320640e-02) (18, 8.63188160007726835998e-03) (19, 6.47123635675263542133e-02) (20, -1.21781961091203400072e-01) (21, -7.32848552814451686954e-02) (22, 2.29691805490526076983e-02) (23, -3.53997705331769996207e-02) (24, -4.43853142277684797889e-02) (25, -6.92522365455481014873e-02) (26, 5.77250437555459558481e-02) (27, -1.39071202117428349698e-01) (28, -3.91644003989357822326e-03) (29, 1.53790838654881550918e-01) (30, -9.13955739023538937804e-02) (31, -7.09580907215363876350e-02) (32, -3.65433970083482162483e-02) (33, -2.33057617672999192737e-02) (34, -1.83225175286528513263e-01) (35, -2.22027607871936483175e-01) (36, -8.08982142603591886099e-02) (37, -1.99575993652133000522e-02) (38, 5.64266560773516064053e-03) (39, -8.58622920201843192745e-02) (40, 4.90930877950262068571e-03) (41, -1.31627667367959749756e-01) (42, 4.88678703606425443584e-02) (43, 3.71976794625432580221e-02) (44, -8.41978174198552628549e-03) (45, -1.02423029414638697143e-01) (46, 7.84381941527924619884e-02) (47, -5.28428855626286164693e-02) (48, -9.95079313747586069461e-02) (49, -7.70108392280180464873e-02) (50, -3.64262605112241413807e-02) (51, -2.88885356763052027207e-02) (52, 5.37073532731500366544e-02) (53, -1.05877061720800247357e-01) (54, -2.71660394777265695732e-02) (55, 5.43631470524820747947e-02) (56, -1.29597601900050929391e-01) (57, -1.11353540846022711075e-01) (58, -3.61621957801905383190e-02) (59, 1.24777097103200267786e-02) (60, 4.72862587986139434881e-02) (61, -5.45807400025286673650e-02) (62, 5.89852439484181353957e-02) (63, -3.86768292725915979746e-02) (64, -9.11168430681527780068e-02) (65, -2.74542719895602360669e-01) (66, -1.55154380907546379786e-01) (67, -2.09957582319116903280e-01) (68, 6.13149742042355585386e-03) (69, 1.10718358890702972541e-01) (70, 7.85292974379013797304e-02) (71, 7.10379520115228674237e-02) (72, 9.91604534111898833215e-02) (73, 5.24503468361093072581e-01) (74, 9.16583246687770136774e-01) (75, 6.48745350399477782588e-01) (76, 4.17332002714092709095e-01) (77, 2.68438489867113272425e-01) (78, 9.50488319623570138139e-02) (79, 1.79479869191894791935e-01) (80, 2.47791525876545515317e-01) (81, 2.14246642744564619321e-01) (82, 2.23170105996477269317e-01) (83, 5.86897371353465244215e-02) (84, -6.49039122519478803297e-03) (85, 2.92151304775716026685e-02) (86, -9.08693616444325308334e-02) (87, -3.64331431614057371648e-02) (88, 1.02076320681436568533e-02) (89, 1.98609040256731740615e-02) (90, 2.33801435942605738416e-02) (91, -8.91772604712307015440e-02) (92, 6.91983594024969950187e-02) (93, 3.13785476235037483206e-02) (94, -1.81346757750877984883e+00) (95, 2.92311892921304633530e-02) (96, -5.39112776446101449324e-01) (97, -2.59261100806929933871e-01) (98, -6.51273248954863381854e-02) (99, 8.54820337266243984731e-03) (100, 1.75639033981325798361e-01) (101, 2.12308522130366661429e-01) (102, 8.27838128435688158646e-01) (103, 1.19829252821255094474e+00) (104, 2.12013503292771909869e+00) (105, 1.00556334012992065752e+00) (106, 9.58671878072091421252e-01) (107, 8.91865193893235375100e-01) (108, 3.15566717308150390675e-01) (109, 3.09432084193369094649e-01) (110, 1.65684316193285274821e-01) (111, 1.48263437177344081785e-01) (112, 2.48884149832401257996e-01) (113, 2.32045141132270982265e-01) (114, -6.00048955298648073464e-02) (115, -5.12420687869122662428e-02) (116, -3.16650937627329154278e-01) (117, 4.65984092866218811008e-03) (118, -1.54173231410510452877e-01) (119, -4.04027049472969884691e-02) (120, -1.34066915351376103605e-01) (121, 5.64070273226402046918e-02) (122, 1.22078469918848908637e-01) (123, -7.73081144352678745202e-02) (124, -5.78733188171422385793e-01) (125, -1.22266069849163439009e+00) (126, -1.02401133574775338175e+00) (127, -2.64541947746553506027e-02) (128, 1.25314846680779440335e-01) (129, 2.12843355793310595736e-01) (130, 3.46290881737551570208e-01) (131, 2.29169472742800250931e-01) (132, 3.16571053302769522819e-01) (133, 6.64476686444686714950e-01) (134, 9.46441858396744106763e-01) (135, 5.71408886269641147493e-01) (136, 7.16474737779212000888e-01) (137, 3.71842974650675506254e-01) (138, 2.80719714093024041990e-01) (139, 2.65573756502783198119e-01) (140, 3.09959868485033263052e-01) (141, 2.67793030595259301530e-02) (142, 2.27038890335911867913e-02) (143, -1.74504198107294894449e-01) (144, -3.84038596365294138124e-01) (145, -1.15863700301977581852e-01) (146, -3.94459333228621089606e-01) (147, -3.01117391488182561954e-01) (148, -3.15941661915062677046e-01) (149, -7.03935046723527385604e-02) (150, 1.18982473296197835411e-02) (151, -3.74920247880579093902e-02) (152, 6.67937145524577086109e-02) (153, 1.94846853417640519801e-01) (154, -1.55461432177155689516e-01) (155, -8.90940258284603436856e-01) (156, -1.02700119820886254240e-01) (157, 1.81645955822570759342e-01) (158, 4.29024102620805092290e-01) (159, 4.18408853042761097463e-01) (160, 3.87782634911117252141e-01) (161, 3.23461230849753700323e-01) (162, 3.92493987977343750106e-01) (163, 4.47672592640279976006e-01) (164, 3.66673286610190773960e-01) (165, 4.01952631203700061491e-01) (166, 2.08577144158167776533e-01) (167, 2.22303211383497817399e-01) (168, 1.08495608647276239878e-01) (169, 1.14885910802887500348e-01) (170, 3.19222328389477116861e-02) (171, -1.16243868891695120715e-01) (172, -6.37047299640131514664e-01) (173, -4.07624900935486644826e-01) (174, -3.88366937464824479864e-01) (175, -2.88469434905568367089e-01) (176, -4.90023572823946207411e-01) (177, -1.34472755123447673675e+00) (178, -4.48703759136484803260e-01) (179, -7.62194368814844980253e-02) (180, -1.05200944146108477106e-01) (181, 1.84828040719362984845e-01) (182, 1.64417530522677324267e-01) (183, 1.51147441186581715789e-01) (184, -3.50432521666466212373e-01) (185, -6.94429504042904710559e-01) (186, -4.19219734279060896043e-01) (187, -3.33247982189909641715e-01) (188, -3.38889244189284899456e-01) (189, 1.11750710760254043374e-01) (190, 1.59165625012834516250e-01) (191, 1.84851139456764651525e-01) (192, 1.82605666401302713098e-01) (193, 4.72681310089496542481e-01) (194, 4.79964955708190588179e-01) (195, 1.19895151512990838505e+00) (196, 1.34572565572705804549e+00) (197, 1.25909983874397157777e+00) (198, 1.05061489916621231266e+00) (199, -2.50590309231494767772e+00) (200, -1.46265389866341855019e-01) (201, -4.98086190698633246576e-01) (202, -7.12240004707746510171e-01) (203, -2.99021965715847493072e-01) (204, -1.45062842256685087250e-01) (205, -3.37212886672633771479e-01) (206, -3.91676659257648218659e-01) (207, -2.55561834551100819368e-01) (208, -1.75576872452209598041e-01) (209, -9.69244159764779678046e-02) (210, 7.23279242488115287069e-03) (211, 2.44549692700325761729e-02) (212, 3.80386355402827780470e-01) (213, -2.28164628748442455120e-01) (214, -8.81439437334192305018e-02) (215, -5.71706695224723393522e-01) (216, -3.13661742614621819047e-01) (217, -1.94017606625385141683e-01) (218, -1.78811871034233071942e-01) (219, -3.83857263638212209411e-01) (220, 1.54852572070264676851e-01) (221, -7.82726362720123081118e-01) (222, 7.00413065548930124926e-01) (223, 6.16426065948802004435e-01) (224, 1.35835219471616058806e-01) (225, 4.63756084585007465060e-03) (226, 3.21779808525081867376e-01) (227, -1.74955364517491995802e-01) (228, 4.14030594194371784345e-02) (229, 3.49456691101724503667e-01) (230, -1.09874795696150862057e+00) (231, 8.37304383207601143901e-01) (232, 8.46217450359836975693e-01) (233, -4.18103803375312332857e-02) (234, 5.72395883759212603659e-02) (235, -3.03445838923548705246e-01) (236, 1.48428020966117329288e-02) (237, -1.35308651162189730321e+00) (238, 9.48803379712054723027e-02) (239, 2.63996852278796934055e-01) (240, 4.73436998060971295232e-02) (241, 1.47729778644674042409e-01) (242, 7.12880520518339499958e-01) (243, 4.95065511784345657631e-01) (244, 2.63870409257415228232e-01) (245, 1.31103933192075639003e-01) (246, -1.00137376575046732619e+00) (247, -3.54619027208356474290e-01) (248, 1.26676204428269634228e+00) (249, 7.06873106377385873600e-01) (250, 1.44121770166602602981e-01) (251, 6.50194033995857623154e-01) (252, 7.31306785089681721246e-01) (253, 1.22190688957595061659e+00) (254, 1.22876482521465013598e+00) (255, 1.28371055487096197290e+00) (256, 1.12558828862012183514e+00) (257, 8.48344113212939454627e-01) (258, 7.51935441573635343637e-01) (259, -5.39676685925662633081e-02) (260, -2.17867737061964578116e-01) (261, 1.02093380542206069173e+00) (262, -2.84476003437323828049e-02) (263, -5.28494304861530581063e-02) (264, 8.37876968944777505977e-02) (265, -2.72155530348729246537e-01) (266, -2.06415156879712728688e-02) (267, 6.52305537554133230138e-01) (268, -6.23052431119659484021e-03) (269, 2.05541087455957616204e-01) (270, 3.45164162059774681790e-01) (271, 2.34306293952033228845e-01) (272, 1.01544442143597590800e+00) (273, 4.67560804159341480979e-01) (274, 1.38445785600316423336e-01) (275, 4.47413635840448048464e-02) (276, -6.48232386423778894624e-01) (277, -6.82926725050322230848e-02) (278, 1.00415910065589919498e-01) (279, 1.53831487145237782999e-01) (280, 2.61141067229021389684e-02) (281, 2.07363303974186924394e-01) (282, 6.58486211549019206934e-01) (283, 6.60810443721998597155e-01) (284, 7.75112570317473270620e-01) (285, 2.57262526348211284510e-01) (286, 6.62703425341455099051e-01) (287, 4.53615735855753154926e-01) (288, 1.04077342446394172093e+00) (289, 3.25511794460689785069e-01) (290, -6.85210022791640227524e-02) (291, 1.65738114468249775335e+00) (292, 2.76526319501900097464e-01) (293, -2.04750599663034577036e-01) (294, -2.54617047282835635980e-02) (295, -1.21148668494119232664e-01) (296, -1.36086810427556131886e-01) (297, -8.33442752766787586793e-02) (298, -4.07278150873274735755e-01) (299, 3.73951792014241446438e-01) (300, 5.15107142002939166758e-01) (301, 7.36405418933386290981e-01) (302, 1.06255131090875476474e+00) (303, 4.59121278971182433803e-01) (304, 3.28271177838309613506e-01) (305, 2.77240253374590350788e-01) (306, 1.73883108683391657268e-01) (307, -4.22076225080910139020e-01) (308, -6.63360214565179070328e-03) (309, -2.03212195960368269265e-01) (310, 4.45442214489830901059e-01) (311, 4.06565392267335901089e-01) (312, -9.49738392834673372800e-02) (313, -2.54184695501607327284e-01) (314, 3.43185580044266913546e-01) (315, 2.43613096589330418995e-01) (316, 1.18674318025778147145e+00) (317, 1.16727993978808153308e+00) (318, 1.17896927394155937030e+00) (319, 3.73303731671677296866e-01) (320, -1.66507875339919314550e-01) (321, 2.49950588230440279291e-01) (322, -1.86474814655058640511e+00) (323, -4.66192874773803556110e-01) (324, -2.01436740315202783558e-01) (325, -1.32118541428953129024e-01) (326, -1.76451603764337494606e-01) (327, -9.51481642213145434317e-02) (328, -4.95721408156678533530e-01) (329, 3.01647330866217755485e-01) (330, 2.18804307663111846649e-01) (331, 1.00086390045006834448e+00) (332, 1.01221885269141598229e+00) (333, 4.36776918751037301902e-01) (334, 1.52209420546479623493e-01) (335, 4.88740263296586374686e-01) (336, -8.90396813318888868949e-03) (337, 2.01179040908069178828e-01) (338, 1.10907654855354441403e-02) (339, 1.10044828262211222270e-01) (340, 2.04899813583259038374e-01) (341, 4.10731385550738847812e-02) (342, 8.87640876151536195593e-01) (343, 5.42178220635439256370e+00) (344, 3.18770220314016450303e+00) (345, 2.67844877789994262329e+00) (346, 1.55944206849930200320e+00) (347, 2.38892145869739325192e+00) (348, 1.71095827799701644123e-01) (349, 1.26313883654278813484e-01) (350, 9.23955140687167386648e-02) (351, -2.52990860692530461495e-02) (352, -6.63490846198175221460e-01) (353, -1.63952997287677404437e+00) (354, -5.24819502013144867369e-01) (355, -6.95776354852859629796e-02) (356, -1.27048536099804210142e-01) (357, -1.02556538648206477249e-01) (358, 3.38176757725844212565e-01) (359, 2.88504535150819141354e-01) (360, -5.70925468662462409775e-01) (361, 1.84537629555372423296e-01) (362, 5.28721387704884304704e-01) (363, 2.76775415331587115730e-01) (364, 3.08091986511625837153e-01) (365, 3.45487324032714537836e-01) (366, 2.72093051903210425557e-01) (367, -1.12939097738047333763e-01) (368, 8.01027013003908355815e-02) (369, 5.77393193151083256032e-02) (370, 7.35496938006289513456e-02) (371, 9.11418475836537345103e-02) (372, 4.46467648134998951193e-01) (373, -1.90038325406560154596e-01) (374, -7.04269489097779977094e-01) (375, -1.72278470212535950168e-01) (376, 3.29011937982520819013e-01) (377, 3.79658380144189622207e-01) (378, 6.13026922643139071667e-01) (379, 1.00053977457826098751e-01) (380, 1.11057998447939621812e-03) (381, 6.06330217385778677541e-02) (382, -5.60509168180849982888e-03) (383, -8.70200035776003466559e-01) (384, -4.47709258489462413877e-01) (385, -9.83591554565222958573e-01) (386, 2.40375392969171292057e-01) (387, -3.24804794536719607101e-02) (388, -3.02507913983950660342e-01) (389, 2.60676217736375059886e-01) (390, -5.76154578519428084427e-01) (391, 1.36639309340518232128e-02) (392, 3.36077734110833359349e-01) (393, 4.45513946811759597999e-01) (394, 3.65266807865235743069e-01) (395, 9.46588582690233437678e-02) (396, -2.42297763505695921971e-02) (397, 4.55256117037129530434e-03) (398, -3.55691428731192207935e-02) (399, -8.90403460341593205873e-02) (400, -2.24766438488496034243e-01) (401, -7.09821924973407791803e-02) (402, -2.98581324852824972482e-02) (403, -4.78841239025587561695e-01) (404, -1.09547063425308510709e+00) (405, -5.29254868058985361579e-01) (406, 3.81646874293508631126e-02) (407, 3.23510757115554381524e-01) (408, -1.33048043026038731451e-01) (409, -1.81029032643948040171e-01) (410, -8.35249755221466605448e-02) (411, -1.20648825924679486965e-01) (412, 2.42465004655380914067e-02) (413, -2.64270893669138640103e-01) (414, -1.83879935270327060648e-01) (415, 1.48159715555024762423e+00) (416, 3.01035119599180889249e-01) (417, 1.46005511183249392371e-01) (418, -5.34533998925573961003e-01) (419, 2.12879250873869607652e-01) (420, -6.24956362263164311166e-01) (421, -6.68578315486950014446e-01) (422, 2.84179882060156263623e-01) (423, 5.01150925510770894888e-01) (424, 3.48232569469565711451e-01) (425, -4.24933647151513826934e-01) (426, 1.10653184411456217973e-01) (427, 1.35930770019862229292e-01) (428, 3.46479189445679583437e-02) (429, -6.20257609897108264096e-02) (430, -5.77798876194445920618e-01) (431, -1.73734370031974183490e+00) (432, -2.17521709016244624291e-01) (433, -7.05558550504364223599e-01) (434, -1.06036756662397113615e+00) (435, -6.36976145554829731310e-01) (436, -8.42141121617250520970e-01) (437, -2.26147623219476817669e-01) (438, -7.51061881307974327227e-02) (439, -1.30271132944189071967e-01) (440, 1.51319974086099734434e-02) (441, -1.05363076031499094953e-01) (442, 9.67210907187035090482e-02) (443, -1.89580386854637350513e-01) (444, -1.26295334605912090709e+00) (445, 1.23091305514441984315e+00) (446, 7.06127619707425435713e-01) (447, 4.51529444527876966387e-01) (448, -1.09863121943973807149e+00) (449, -3.41175099734942866014e-01) (450, -9.43878545927422485384e-01) (451, -1.07991367047945407975e+00) (452, 3.18747732300209141165e-01) (453, 3.54858212601805333986e-01) (454, 5.24113375773715084449e-01) (455, -1.55786591673104313216e+00) (456, -3.12266749636973470206e-02) (457, 4.65957502519945276909e-02) (458, 2.70298035540673456389e-02) (459, -1.44043149806618753228e-01) (460, -3.28370602291098823144e+00) (461, -1.14037903909477167375e+00) (462, -5.06502475054179557290e-01) (463, -1.29387174742014193773e-01) (464, -1.08304979586919514212e+00) (465, -1.03345535985218095476e+00) (466, -2.18751558682463181915e-01) (467, -1.80454425293379766559e-01) (468, -1.75259943737820361731e-01) (469, -2.87986696811356746029e-01) (470, -1.52884054789146711650e-01) (471, 1.20266402042998779565e-01) (472, 3.98554528448274159036e-01) (473, 7.88424450979958862940e-02) (474, -2.70030887090876754730e-02) (475, -8.21194945695170930300e-01) (476, 2.84813615081038473686e-01) (477, 2.63475413357303400730e-01) (478, -6.58583772286147284269e-01) (479, -6.19550857024292467301e-01) (480, -1.82138850321446055247e+00) (481, -1.57460225737839620841e+00) (482, 4.10404808770538587215e-01) (483, 3.39945272347808025160e-01) (484, 3.35672507181605517257e-01) (485, 7.38071630764320807394e-01) (486, 1.31916234016755562486e-01) (487, 3.60296947259001951180e-02) (488, 8.40020517706900476940e-02) (489, -1.78691203814237975500e-02) (490, 8.54551277143883805665e-03) (491, -1.03417290361912028729e+00) (492, -3.59813555848708110929e-01) (493, -3.88680165419075518418e-01) (494, -4.23688747712981317317e-01) (495, 3.05214868364622859964e-01) (496, -1.81831474853276608972e-01) (497, -3.58932753613594834885e-01) (498, -2.53515925668749031452e-01) (499, 3.49389727512098777207e-02) (500, -6.12606767927821385666e-02) (501, 1.70817895309448852803e-01) (502, 2.82209790107514013613e-01) (503, 1.67778677818741034367e-01) (504, -7.80084177607743983751e-02) (505, 4.12915708388916447014e-01) (506, 5.89758197020080587869e-01) (507, 1.80659437114649434886e-01) (508, -1.70593103260615785999e+00) (509, -6.15453432908827813286e-01) (510, 5.06424394775690164816e-02) (511, -1.28712111356916247829e+00) (512, 4.21228254220087361404e-01) (513, 4.40993812031144349906e-01) (514, 1.14538236752580277478e-01) (515, -6.29543421081378173909e-01) (516, 3.60535710723620048124e-02) (517, 3.80047265001123152350e-02) (518, 7.30834459813311937415e-02) (519, -1.40119520435130632055e-03) (520, -3.60474836739407902830e-02) (521, -1.91361228213984324587e-01) (522, -1.72677474622676685456e-01) (523, -2.89758537224464263193e-01) (524, 2.30536446784828569223e-01) (525, -1.67949006777370901666e-01) (526, -2.72494401226980265118e-01) (527, -3.72260275184666117321e-02) (528, 3.74884510714903682049e-02) (529, -8.41633431849412166903e-02) (530, -4.49371972548492717991e-02) (531, 6.12881562363536525062e-01) (532, 5.37142173638324837981e-01) (533, 4.37716778592968147610e-01) (534, 6.81043775627887204571e-01) (535, -2.25487771119007140985e-01) (536, 1.48546228946789732328e-01) (537, 1.71793006608510823163e-01) (538, -7.29179673243097181690e-01) (539, 3.22050347364264133443e-01) (540, 5.50090765863990527329e-01) (541, -1.21744358537567431977e-01) (542, 9.00366645805159349081e-01) (543, 4.88511333646074685788e-01) (544, 3.67602040171705779503e-01) (545, -2.84882309661722565863e-01) (546, -6.11964671333940057885e-01) (547, -1.83811659181992541334e-02) (548, -1.55938723392498340692e-01) (549, -1.00351937090229048621e-01) (550, -3.15458845955234878922e-01) (551, -5.23861266326272785598e-03) (552, -6.99053085365725773714e-02) (553, -1.06070473890187713661e-01) (554, 1.21162756908529317679e-01) (555, 5.82233520394363601724e-01) (556, 1.21279616248737259765e-01) (557, -1.11449490861746700054e-01) (558, -9.05774449903432171682e-02) (559, 3.34019419456109967204e-02) (560, 2.51729636099906443902e-02) (561, 3.67371851306189545205e-01) (562, 1.10244089726098309923e-01) (563, 9.79466730700162546697e-02) (564, -8.64149271615444192207e-02) (565, -1.19338336132672487300e-01) (566, 5.13189039923394929588e-01) (567, -8.65319923440597160713e-01) (568, 1.32832371637319368585e-01) (569, 2.88873079959460266064e-01) (570, 2.93254965001835066207e-01) (571, 8.97259360275489359360e-01) (572, 2.20601852967345424261e+00) (573, 8.24979183917846525809e-01) (574, -5.38106836010285194405e-01) (575, -1.35286590515805338342e+00) (576, -1.05984343322764984485e+00) (577, 1.64974122822378360675e-01) (578, -7.10082013426662980726e-03) (579, -3.94521225685340481970e-01) (580, -8.82007870122045040118e-02) (581, 5.34602412018532827109e-02) (582, -2.38049865291584866744e-01) (583, 5.60077325942288761773e-01) (584, 2.92357630929056588887e-01) (585, 5.98332956490393197413e-01) (586, -5.77578698317404992668e-02) (587, -1.56761237676492332094e-01) (588, -3.01151215078996892238e-01) (589, 4.06065823029065187111e-01) (590, 4.42366293335982208035e-01) (591, 2.82829438648274644752e-01) (592, -2.33362772566485660031e-01) (593, -4.09001461102873123399e-02) (594, -2.26405966466565189421e+00) (595, 4.58660883402786268004e-01) (596, 4.69817020520279182705e-01) (597, -3.44279956447986923429e-01) (598, 7.68315468842727805621e-02) (599, 2.07361497054869114987e-01) (600, 3.03451422107776536130e-01) (601, 2.37692653651043722673e-01) (602, 2.15672540688440594892e+00) (603, 5.33334605424616525760e-01) (604, -2.51586083840498797581e-01) (605, 3.62314963899615927190e-01) (606, -4.70341114358467315970e-01) (607, -1.08070210164130611763e-01) (608, 9.12257817754695055079e-01) (609, 3.13487497712099993930e-01) (610, -2.08896974060049672728e-01) (611, -2.39487147876647127331e-01) (612, -2.71495041873519804554e-01) (613, -3.58457688505724514361e-01) (614, 2.08720852979386944925e-01) (615, 7.08759521374332929211e-02) (616, -2.75539642755981806221e-01) (617, -1.16484736049777715117e-01) (618, -1.19070872856620962876e-01) (619, -9.93440159003760869805e-02) (620, -7.16446658579313888637e-02) (621, 4.34278288362461017957e-01) (622, 8.81061892891289333285e-01) (623, 5.97838825876223500799e-01) (624, 7.37933660492926385421e-02) (625, -4.20893617050883475650e-02) (626, 5.44506949466193268528e-01) (627, -3.65623773790429651420e-01) (628, 5.40204685691059283137e-01) (629, -3.04305168670947256970e-01) (630, 1.22039164484775294883e-01) (631, 3.08102970069565745836e-02) (632, 1.50146538422478964536e-01) (633, -4.13395908859009009184e-01) (634, -7.22310250976452405958e-01) (635, -7.00036819921307396086e-01) (636, -4.73390714628650510765e-01) (637, -3.51131362204819275075e-01) (638, -2.35697567490357862141e-01) (639, 3.22509779669997165286e-01) (640, 1.63732566712127165787e-03) (641, -7.40782377461521174267e-02) (642, 1.47420778572452171318e-01) (643, 2.65724473912031022849e-01) (644, 1.74922423643037588947e-01) (645, 9.76176439228116782365e-02) (646, 5.04587088244734083275e-01) (647, 5.33550245469833206435e-01) (648, 2.34242413084137346413e-01) (649, 1.22440806489617762254e-01) (650, 1.14169428351596352611e-01) (651, 1.31567884112419086762e+00) (652, 1.19518656768123299194e+00) (653, 9.12204371133822466966e-01) (654, 5.02418453254536490071e-01) (655, 5.49470356258722758547e-01) (656, 7.53636163942622783196e-01) (657, 9.78041088463714042289e-02) (658, -3.22805826659797789890e-01) (659, -6.97204430356875293207e-02) (660, -3.64013231249044263982e-02) (661, 2.17398262714722130540e-02) (662, 2.77846885629482565072e-01) (663, 1.16425925268382440825e-01) (664, -3.94039400558160446408e-02) (665, -4.95399062815041923979e-01) (666, 1.44336603212611130909e-01) (667, -3.20942232854666997799e-01) (668, -4.89906133401919907655e-01) (669, -1.98044561419593381779e-02) (670, -1.18715602592389224412e-01) (671, -2.52019642922706801902e-02) (672, 6.78324578547931267281e-01) (673, 8.79329951468505233159e-01) (674, 5.68826251729387721845e-01) (675, 9.29542873645255868231e-02) (676, -1.90639516715219559106e-01) (677, -2.23898932494524638415e-01) (678, -1.84656352275521101758e-01) (679, -8.21793121428128880979e-01) (680, -4.76285306437389699408e-01) (681, -5.00772111805064978896e-01) (682, -4.40411521011420947769e-01) (683, -4.75785570174184102576e-01) (684, -5.15821217370662110646e-01) (685, -1.37235767882169357179e+00) (686, 9.33632323552208598372e-01) (687, -5.99347567530657612811e-03) (688, -1.94085659510501357117e-01) (689, 5.86512572764221473687e-02) (690, 7.33408650459791422449e-02) (691, 1.92693489326308865263e-03) (692, 1.68135954560473283026e-01) (693, 9.33622843395035678649e-02) (694, -1.57990746388154447433e-02) (695, -6.68919818886962169735e-04) (696, -4.19859853033836438740e-01) (697, -7.70314329123878316352e-01) (698, -1.39089723258736253086e+00) (699, 1.57298090161950759880e-01) (700, -1.50083914989277145136e-01) (701, 2.39307203343790270145e-01) (702, 7.30538268765368592472e-02) (703, 7.13661661472420716379e-01) (704, 1.02749672945979919625e+00) (705, 8.79038043604986940593e-01) (706, 3.94000299039009793667e-01) (707, 4.17558911681820077444e-01) (708, 2.10329621876302580441e-01) (709, 2.99063973601834232063e-01) (710, 1.58241361362247867639e-01) (711, 7.80708712435406598784e-02) (712, 2.52183889794298288223e-01) (713, 2.54248574652874592683e-01) (714, 3.26316540145461519984e-01) (715, 3.38714602840658740579e-01) (716, 7.41612134640449865985e-02) (717, -4.78740081953954541710e-03) (718, -4.72432342585819356473e-02) (719, 1.27714373468691161362e-01) (720, -2.02743842170700246108e-02) (721, -1.57467332857955333303e-01) (722, 3.29526640033948881037e-02) (723, -8.47632714836212691756e-03) (724, 1.01536691827488811946e-01) (725, -9.09933011453327583729e-02) (726, -1.53816714612995147915e-01) (727, -8.12121075731761510319e-01) (728, -6.95097824307962630641e-01) (729, -6.29512822201339083961e-01) (730, -1.18582349181793680892e-01) (731, -8.59960440715635682229e-02) (732, 1.07068112710348120609e-01) (733, 5.33806625796344400015e-02) (734, 9.11521758153149619375e-01) (735, 5.25623437219730593739e-01) (736, 4.53479465529704306448e-01) (737, 1.72080839613450581327e-01) (738, -4.94188731967306199566e-02) (739, -6.79796171685833894305e-02) (740, 8.80379401733630412297e-02) (741, 4.85830307069542721710e-02) (742, 2.03506213711797889765e-01) (743, 1.95902902428111980182e-01) (744, 2.77143042088007607315e-01) (745, 1.35598567070838837978e-01) (746, 1.15370842155850056310e-01) (747, -1.05479650565285423824e-01) (748, -2.94515126402635739333e-02) (749, 8.51926673796444267062e-02) (750, -4.77320283099968156737e-01) (751, -2.17242618694384215239e-01) (752, -3.93996443290258527292e-02) (753, -2.26292078998453188854e-01) (754, -2.78846155105130555363e-01) (755, -3.87543480752066460404e-01) (756, -2.06504804967001992511e-01) (757, -4.20879985449988391899e-01) (758, -6.79795798551022900647e-01) (759, -4.73545980158928347947e-01) (760, -3.48926010797031227462e-01) (761, -4.97612469078201613559e-02) (762, 8.18497883766600153876e-03) (763, 5.24593676700738226204e-02) (764, 1.15172875096233348624e-01) (765, 6.03697945200895924600e-01) (766, 2.77138643183245159118e-01) (767, 2.59012633254751267753e-01) (768, 2.48805261577007413853e-01) (769, 1.51246279864467758625e-01) (770, -1.62707248023595931266e-03) (771, 2.60627897705284383711e-01) (772, 2.09144602227987752574e-01) (773, 2.74554428094318181408e-01) (774, 1.64952243742474219390e-01) (775, 1.49629338280299700736e-01) (776, -6.43274964816584332583e-02) (777, -8.16132591305149812655e-02) (778, -1.02043802423001164770e-01) (779, -1.16714246292301759844e-01) (780, -2.91320033939367950548e-01) (781, -3.37955750563538770415e-01) (782, -4.37629728027317366212e-01) (783, -2.07310070427269144133e+00) (784, -2.44067097074850886118e-01) (785, -2.14218141721645938258e-01) (786, -2.31981672734038135708e-01) (787, -1.14962126275495291061e+00) (788, -7.28068215970549381666e-01) (789, -5.01302115977789841672e-01) (790, -7.46103340509971735273e-01) (791, -4.83541713863055722111e-01) (792, -5.43493883384529419267e-01) (793, -4.53651275884007443295e-01) (794, -2.97033232573695626932e-01) (795, -4.04679987350509695609e-01) (796, -2.85305600253451252524e-01) (797, -3.31718015248975151010e-01) (798, 1.20525584604039850967e-01) (799, -4.26380743249266946915e-02) (800, 4.17829046274038606867e-02) (801, 3.15989494404646242831e-02) (802, -3.27272881903764578659e-02) (803, 4.31822428068833058523e-02) (804, 6.32254323462269479661e-02) (805, -1.02984747354870967428e-01) (806, 6.66827108195951756553e-02) (807, -8.26917044993242950079e-02) (808, -1.05753508109441632379e-01) (809, 4.18699901852132641555e-02) (810, -2.53123640058914911588e-01) (811, -3.90942581036484881896e-01) (812, -4.45597426517660766265e-01) (813, -2.64358600850843727947e-01) (814, -1.75166174235299509920e-01) (815, -3.38739706661044137626e-01) (816, -4.25094072051825477843e-01) (817, -5.50755014631031603045e-01) (818, -5.33639944328931137285e-01) (819, -4.67621810998349374255e-01) (820, -2.35196499703836242601e-01) (821, -2.48436236865824472408e-01) (822, -3.59051322012171950093e-02) (823, -1.80431581960925652153e-01) (824, -1.36482839122841231871e-01) (825, -4.48063610456106639623e-02) (826, -3.52409572043360791449e-02) (827, -1.11500115851682582435e-01) (828, 2.80174944863811788143e-02) (829, -1.20285500182102572664e-01) (830, -5.37622704697854544853e-02) (831, -4.53304345667433859074e-03) (832, 4.17876814931623860594e-02) (833, -1.79354138205708342479e-02) (834, 6.02558516432582305655e-02) (835, 2.05628575130015547878e-02) (836, -1.58480909928364575856e-02) (837, -1.03019068791929110929e-01) (838, -1.29063416916719242433e-01) (839, -1.28256178362691680706e-01) (840, 7.96533864049932122109e-02) (841, -2.73556205336108804183e-01) (842, -4.93584319987690978149e-01) (843, -3.45275042130406162322e-01) (844, -2.33239239406663051435e-01) (845, -1.74904581979505507894e-01) (846, -1.24382559548994645060e-01) (847, -3.43542422513354928082e-01) (848, -3.17864626329864841114e-01) (849, -3.35491880458320901326e-01) (850, -1.37655493457408767410e-01) (851, -1.45590386989181919120e-01) (852, -9.16061812119586260650e-02) (853, -3.40245742340638465673e-02) (854, -1.23103559400704748450e-01) (855, 2.19995822647538925854e-02) (856, -2.46249575774748034884e-02) (857, -4.90859886332113415364e-02) (858, 6.18086069954317113284e-02) (859, -3.36662496249753862010e-02) (860, -8.66075201909231734421e-02) (861, 3.19336196358515136962e-02) (862, -4.64537685868428654179e-02) (863, -9.99670607331708815924e-02) (864, -1.28626708357290168994e-02) (865, -7.64887116417459905771e-02) (866, -1.33292195157723752930e-01) (867, -2.94682651326230900246e-02) (868, -6.37674991920832157088e-02) (869, -1.37976831495966421881e-02) (870, 4.37643981281495980662e-02) (871, -7.17059556336381853647e-02) (872, -2.32076859684773526005e-02) (873, -2.55043274374791156811e-02) (874, -2.52060359927006732983e-02) (875, 1.09972471202610996149e-02) (876, -1.22821654955029585521e-01) (877, 1.71380370034582285577e-02) (878, -1.00678853649532121239e-01) (879, 4.64457061435732260213e-02) (880, -9.20895802343699165782e-02) (881, -8.13067925226096249736e-02) (882, 3.55605565658093994430e-02) (883, -1.21989169836759447918e-01) (884, 5.45530271599260277449e-02) (885, -1.12704428296235517615e-01) (886, 4.91962453106370781186e-02) (887, -1.22927978857206125773e-02) (888, -1.33050690809202010190e-01) (889, 2.82278946370603002480e-02) (890, -9.13246965272116184575e-02) (891, 5.75877839334737896132e-03) (892, 3.80017713144251423341e-02) (893, -9.18616473242811620858e-02) (894, -1.06300589399056816253e-01) (895, 1.83466181590982609084e-02) (896, -3.58784466549924296874e-02) (897, 3.41766629962407227430e-03) (898, 1.44373370044540899615e-01) (899, 1.51109180982953145156e-01) (900, 3.68921114141166683886e-01) (0, -2.37554073952713018514e+00) (1, -5.23660867483562109115e-01) (2, -5.53681972518599407884e-01) (3, -4.95961155943897946674e-01) (4, -3.94237602920633978254e-01) (5, -6.25058721971589514865e-01) (6, -5.00393404102781769183e-01) (7, -6.79318241934307676111e-01) (8, -7.40479614068192737442e-01) (9, -8.79622046519855982361e-01) (10, -3.52466328505504966628e+00) (11, -3.41993948320852680922e+00) (12, -7.58179688881298741165e+00) (13, -1.73176173711460883453e+01) (14, -4.02550552746658567571e+01) (15, -9.49386671120347784836e+01) (16, -1.74067272656709910450e+01) (17, -2.24847069198367215392e+01) (18, -1.01256213222802813334e+01) (19, -4.67213858615932586815e+00) (20, -1.25930013747349445197e+00) (21, -8.49677681250569971638e-01) (22, -6.51597599349326150886e-01) (23, -5.23769415844818952976e-01) (24, -5.35529136898740598660e-01) (25, -5.46585947311626907386e-01) (26, -5.62572162359415539612e-01) (27, -4.58799561305976266734e-01) (28, -5.00779153862239145845e-01) (29, -2.32851964481749540425e+00) (30, -5.69597038301842495400e-01) (31, -3.53931089048992342239e-01) (32, -7.45903213126555691970e-02) (33, 9.47788356725203506858e-02) (34, 6.56422630280396740554e-02) (35, 9.54314837019851897049e-02) (36, 8.52069646666816365999e-02) (37, -5.63958470732864869390e-02) (38, -1.41062254658466723622e-01) (39, -1.96659476634645891124e-01) (40, -3.59489532178967452491e-01) (41, -7.58263922278598734295e-01) (42, -1.75233638661155444183e+00) (43, -6.48826308912297289311e+00) (44, -9.30833557399113331599e+00) (45, -9.26526361109812413019e+00) (46, -9.35478762688238774103e+00) (47, -4.07649223007933336760e+00) (48, -2.36633119693968296815e+00) (49, -4.50120428049442899976e+00) (50, -2.45087814292881489564e+00) (51, -2.44275895511214563571e-01) (52, -7.66255705555236171778e-02) (53, -6.57414042126242270658e-02) (54, -6.67212511025847554436e-02) (55, -2.59195536953237617994e-02) (56, -3.85640575160362611418e-02) (57, -9.33852556132676731027e-02) (58, -5.68874007175759643928e-01) (59, -5.60241507449389719575e-01) (60, -4.91454203784831900048e-01) (61, -6.12595007307166136701e-02) (62, -9.09196584562912551997e-02) (63, 8.25239979557640807029e-02) (64, 6.18293188696926621084e-01) (65, 3.13426445395983077624e-01) (66, 3.74620891433682545735e-01) (67, -1.01014265875945641326e-01) (68, -1.55266276523151669497e-01) (69, -3.05557037127848041269e-01) (70, -3.63914544836555942098e-01) (71, -4.41831912685436867250e-01) (72, -4.34515907739858986414e-01) (73, -4.99262981065968169947e-01) (74, -2.20945321012604112276e-01) (75, -2.19460286494662315526e-01) (76, -3.94156170489179891181e-01) (77, -4.16361946305341401597e-01) (78, -4.50410357110148540372e-01) (79, -5.65502865338465054990e-01) (80, -2.83485769179447455457e-01) (81, -3.82209104947332234392e-01) (82, -1.01178137004786394826e-01) (83, -4.35537314957824689410e-02) (84, -7.80471635913150690866e-02) (85, 3.30691785980137487044e-01) (86, 7.89939829400804649495e-01) (87, 3.12795180932017191644e-01) (88, -9.53263443764655882262e-02) (89, -5.69621060216390251441e-01) (90, -4.72144617662030807725e-01) (91, 1.90539186244505109880e-01) (92, 3.02105253695317765850e-01) (93, 3.53170922105665252566e-01) (94, 3.83034486795359341293e-01) (95, 5.83912517504467487583e-01) (96, 5.40203885485586288162e-01) (97, -1.76319910387738726376e-01) (98, -1.54402195619061211040e-01) (99, -3.77485512538946799133e-01) (100, -8.63020448893996205975e-01) (101, -1.82882297858276721136e+00) (102, -2.14952840689245805450e+00) (103, -4.22343534323811375941e+00) (104, -3.81223051464128159793e+00) (105, -1.02974476018462213212e+00) (106, -1.35127733502622238149e+00) (107, -3.74294111237055693309e-01) (108, -1.06548786914218186761e-02) (109, -4.63066006907763394462e-01) (110, -1.39056827900550294963e+00) (111, -4.83306597155246431274e-01) (112, 8.54408398134514496247e-02) (113, 2.56048079347805435102e-01) (114, 9.05085733226462574308e-01) (115, 3.22019961828259271286e+00) (116, 2.62070077182320471110e+00) (117, 2.16340442236792274144e+00) (118, 1.60614051342821556601e-03) (119, -5.28039625041793581062e-01) (120, -4.30489932551114451442e-01) (121, 1.13231067120591011310e+00) (122, 4.69957977258162407086e-01) (123, 9.67012268443067646295e-01) (124, 1.75046212602794448721e+00) (125, 2.65354320526307985162e+00) (126, 1.97986763082055738927e+00) (127, 7.29985547165781123446e-01) (128, 1.67468598869948581687e-01) (129, -1.04417903569040071421e-01) (130, -2.00762333358871059019e+00) (131, -1.14950319921395971434e+00) (132, -1.07866316818834340197e+00) (133, -1.04208078705871765024e+00) (134, -1.65297304901551167511e+00) (135, -1.93124891511944474232e+00) (136, -1.68444006038172733319e+00) (137, -9.18020084591751883707e-01) (138, -1.03689203899666626540e+00) (139, -5.36240102152348718789e+00) (140, -3.72394595345724965796e+01) (141, -4.58632165774261011393e+01) (142, -1.40670391506840957163e+01) (143, -1.84722209413594518068e+00) (144, 1.61430273499224286038e-01) (145, 1.61843675725773383789e+00) (146, 1.26373483175673264611e+01) (147, 3.00101034595800015836e+01) (148, 5.61643262483043081978e-01) (149, -6.00820666825735649752e-01) (150, -4.97927406836451091898e-01) (151, 4.45721336561145820010e-01) (152, 4.85943807284465567609e-01) (153, 6.20402294850173618990e-01) (154, 4.81240551171533414987e+00) (155, 8.70240968859526553558e+00) (156, 1.28134885282963296049e+02) (157, 5.41585695883116429172e+01) (158, 9.18008013925353472118e-01) (159, -1.83164905459730714687e-01) (160, -1.59810951112176746758e-02) (161, -1.30912919433975316608e-01) (162, -2.06528090613149695187e-01) (163, -1.23791080910237577539e-01) (164, -5.02784046869943046509e-01) (165, -1.50737848662515577791e-01) (166, -1.81973878535778538224e-01) (167, -1.29545986542681290654e-01) (168, -1.34925589019861180695e+00) (169, -7.37966725944997961051e+01) (170, -7.41863009854905328666e+01) (171, -7.24929285578452606842e+01) (172, -4.39887606284537895363e+01) (173, -6.57685822703900058173e+00) (174, -3.56266650004119722617e-01) (175, 2.04993410028523725952e-01) (176, 5.07751377608854337353e+00) (177, 2.58786078825359489031e+00) (178, -2.82153974436604837450e-01) (179, -8.22079286200512626692e-01) (180, -5.15032867247387615706e-01) (181, 6.35481350178794257566e-01) (182, 1.13918706083703513698e+00) (183, 3.76981492515351535033e+00) (184, 4.99009135211248455732e+00) (185, 4.52052887772770439767e+00) (186, 1.02286621680006248880e+01) (187, 2.46190508929181142150e+01) (188, 4.51245043182060623366e+00) (189, 8.30184222916533598458e-01) (190, 4.71121759445135346311e-01) (191, 4.16725826474939553545e-01) (192, 3.21513372550206233402e-01) (193, -4.01908454613957369372e-02) (194, -1.61990336865485667905e-01) (195, -1.63535158928401119782e-01) (196, -2.55697094079768427743e-01) (197, -4.93545258650657514554e-01) (198, -9.61332484072798587604e-01) (199, -9.06628546861086448416e+00) (200, -5.20192461383535729169e+01) (201, -2.97009136477986260161e+02) (202, -6.73456941775690552277e+02) (203, -1.98991954775550610179e+01) (204, -2.05593111209411949503e+00) (205, 2.58011639100014900094e-01) (206, 1.48502460754852716462e+01) (207, 1.03889455744120855485e+01) (208, -6.66358144376255734365e-01) (209, -1.33489972677396684375e+00) (210, -4.71754746848299433282e-01) (211, 3.50110620043408038438e-01) (212, 8.50087154542912171173e-01) (213, 1.20285976195570820657e+00) (214, 4.64061331100680440898e+00) (215, 2.77671069961606065135e+00) (216, 2.57804735285919361942e+00) (217, 1.18426764458325339824e+00) (218, 9.26634164675190219462e-01) (219, 5.64470068734304941671e-01) (220, 2.33555124008657549739e-01) (221, 3.16157112101871085041e-01) (222, 1.58633117217297531232e-01) (223, 2.06865525417560897070e-01) (224, 1.70177763118992936286e-01) (225, -4.75538842052544319383e-01) (226, -5.95106316959539749512e-01) (227, -2.76304755638771326609e-01) (228, -7.13379102630371297877e-01) (229, -1.68659596598051164662e+00) (230, -8.65727119540803435882e+00) (231, -5.09103430881691565446e+01) (232, -5.08560731639663572423e+01) (233, -5.01866230451202444129e+00) (234, 2.14720575360594939651e-01) (235, 1.29200425720864070511e-01) (236, 1.32462423654306626908e+00) (237, 2.17611006145361969288e+01) (238, -4.13885859942979383863e-01) (239, -1.31230612174579892582e+01) (240, -6.62308662190006502968e-01) (241, 7.75562093198156166096e-01) (242, 2.22619496069764188917e+00) (243, 1.62587750699806754540e+00) (244, 1.13190620551459559806e+01) (245, 8.30855512228960368937e-01) (246, 1.40682624255209409725e+00) (247, 4.34869227806510316725e+00) (248, 2.24225369356246539976e-01) (249, 5.05578105148665524204e-01) (250, 5.02477607162811645836e-01) (251, 2.12964792524780788252e-01) (252, 2.43596683078996706362e-01) (253, -3.97910895052019028539e-02) (254, -2.00855033315306789887e-02) (255, -1.20333807696789940600e+00) (256, -1.46007454818225190785e-01) (257, -6.08654135830853704192e-01) (258, -1.47874646525486541648e-01) (259, -1.59804491201253201504e-01) (260, -5.10122028973598373724e-01) (261, -2.12375903965440997467e+01) (262, -2.10729371274786565493e+01) (263, -1.33746150349034955696e+01) (264, -1.39107567833493983578e+00) (265, 2.80185217512653850225e-01) (266, 3.61323750582074554316e-01) (267, 1.42964534367865686582e-01) (268, -2.41337880529663593165e+01) (269, -2.60037009317627756388e+01) (270, -1.22190155316954851550e+00) (271, 1.48453936108493755874e+00) (272, 3.82437593973742506748e+00) (273, 1.07762903323011123291e+01) (274, 2.36241321701537287936e+00) (275, 6.38874174414878037709e-01) (276, 1.45561561596524025042e+00) (277, 7.72340057390826673078e-01) (278, -1.47488690696325253082e-01) (279, -2.68147017330480852415e-01) (280, -1.66250285489487364954e-01) (281, 7.02935469776757582139e-01) (282, 1.47023859095037656708e+00) (283, 3.55772343650841038620e-01) (284, 2.14393306756136103886e-01) (285, -2.98602542398267944979e-01) (286, 1.51924638302625647501e-01) (287, 3.02357211056410932204e-02) (288, 6.50133468591886226617e-02) (289, 4.63580790207647641665e-01) (290, -7.53861877287605036679e-02) (291, -1.89504294461642797121e-01) (292, -9.36408554354666078368e-01) (293, -1.82242222112479339557e+02) (294, -5.35483684428414985490e-02) (295, 1.45110675972968006242e-01) (296, -9.14332491754757670233e-02) (297, -6.73047909040440789363e-02) (298, -2.29181703449022977637e+00) (299, -1.31959139329713764255e+02) (300, -1.49674600582973460483e+00) (301, -4.59377147668723270768e-02) (302, 2.78280095362079815668e-01) (303, 1.96909735493094872893e+00) (304, 8.33088242331984529798e-01) (305, 6.71849083462642604481e-01) (306, 1.34926842268955571313e+00) (307, 3.58068729986229001838e+01) (308, -7.41945430651072768136e-01) (309, -2.09630878705784645666e-01) (310, 3.45581580952460998279e-01) (311, 5.09284406394733824008e-01) (312, 1.44181576373292874571e+00) (313, 4.19123361534202709677e-01) (314, 1.15694739600301366167e+00) (315, 2.06452180622670761201e-01) (316, -1.36056884364598812409e-01) (317, -1.29299876587785661508e-01) (318, 3.37721079188212980338e-01) (319, 2.25350060010447127146e-02) (320, -8.82522036968769359178e-03) (321, -1.25018654593880979009e-01) (322, 8.48725672505399181267e-02) (323, -5.79769311542736143217e-01) (324, -1.24001265038922028339e+01) (325, -3.80598955887940482157e+00) (326, -3.44305001955583378503e+01) (327, -1.22791885780591272237e+02) (328, -5.36199938907170235325e+02) (329, -3.02231882478953650661e+02) (330, -1.44675888417052234125e+00) (331, -3.39467307633174675274e-01) (332, 3.83028768854738355110e-01) (333, 1.47357757646823128717e+00) (334, 1.32025738201382059067e+00) (335, 1.68918974198715243773e+00) (336, 5.20143921032542522198e+00) (337, 4.69712535760768759019e+01) (338, 3.12646312669270454165e+00) (339, -3.92059608441975959714e-01) (340, -2.82216623135209399020e-01) (341, 7.74143869602690326559e-02) (342, 1.09383688926815203502e+00) (343, -9.75258573112755300372e+00) (344, -7.89715500722135366196e-01) (345, 7.29192427675701831946e-02) (346, 6.87729693512817846779e-02) (347, 3.11952539202463713375e-02) (348, 1.18688613532204029211e-01) (349, 4.87245956559113416184e-02) (350, -1.00029272083121886783e-02) (351, -5.92573960416171996446e-02) (352, -4.37245700013957239172e-01) (353, -1.46514673060475408839e+00) (354, -9.51002332417058084957e+01) (355, -6.61323562105305740033e+01) (356, -8.38963907238855881587e+01) (357, -1.53577004073168730258e+01) (358, -1.27709189016573373010e+03) (359, -7.96144024896555265514e+02) (360, -1.71289379033150401810e+00) (361, -7.65791036693116322631e-01) (362, 2.62176940348888221077e-01) (363, 1.56574441335490921468e+00) (364, 1.55651767075551372699e+00) (365, 1.65317431709867768141e+00) (366, 6.30329703995957846274e+00) (367, 3.83663172595299750700e-01) (368, 4.74720686710562375654e-02) (369, 2.05390902194140412274e-01) (370, 3.51684504124011476645e-01) (371, 1.37114744035019442414e-01) (372, 8.10358710378001889652e-01) (373, 1.35849957763993400839e+00) (374, 1.24305050364785341088e+00) (375, 9.71798600109553434301e-01) (376, 4.85245321870915513607e-01) (377, 3.70269842047760810999e-01) (378, 4.66147751853481284723e-01) (379, 1.38898847335247825896e+01) (380, 1.82608834220257456593e+01) (381, 1.13686783621870524108e+00) (382, -1.68668742695621987071e-01) (383, -1.50649625444907253602e+00) (384, -3.28718813619238474644e+01) (385, -8.27086267265176111607e+00) (386, -1.61919278866756544133e+00) (387, 1.31380171329840811367e-01) (388, -1.23775892085178924162e+02) (389, -1.32952926509041731151e+02) (390, -1.81531898361558607924e+00) (391, -2.02631051844886306279e-01) (392, 8.16269128469276461502e-01) (393, 2.22053398602833418352e+00) (394, 2.17087195246735786824e+00) (395, 2.82338905760819125490e+00) (396, 1.92751104672715167787e+00) (397, 2.23275817335827658772e-01) (398, 1.82257194971993274901e-01) (399, 1.71090703120815063043e-01) (400, 5.27772722826963303078e-01) (401, 1.36131756627703048856e-01) (402, 3.98446954462566629851e-02) (403, 1.28536541135868187524e+00) (404, 2.20832065483964790076e+00) (405, 1.45188856300667956667e+00) (406, 8.70606337737856589287e-02) (407, 2.27222854059716622421e-01) (408, 6.48102696692102853149e-01) (409, 9.59353060597754279115e+01) (410, 4.87216823296947552535e+02) (411, 6.74880177247120229822e+01) (412, 1.75372842050662974822e-01) (413, -1.68977745086868402780e+00) (414, -2.79841109259806330556e+02) (415, -3.97452184091817983802e-01) (416, -7.33629371902510429848e-01) (417, 4.24772615692544874832e-01) (418, -1.58127861469182312559e-01) (419, -1.92579917762057517550e+00) (420, -2.17039398013836759560e+00) (421, 3.15901520492755383263e-01) (422, 1.31633161146148003340e+00) (423, 5.75965414982605583560e+00) (424, 2.15769682074300561681e+00) (425, 1.44974234923748235282e+00) (426, 1.91768076963474243257e+00) (427, 8.36925146417876325566e-02) (428, 5.54365982431534565222e-01) (429, 2.69057238416865684982e-01) (430, -4.00800033927209697904e-02) (431, 3.98589695506498586930e-01) (432, 4.18198276040662286768e-01) (433, 1.12819892476943128834e+00) (434, 1.18948290083969321351e+00) (435, 7.15452259867737527799e-01) (436, -1.43175185422657946788e-01) (437, -4.35929232002323585604e-01) (438, -1.55342788921239788325e-01) (439, 2.59906506966803041436e+00) (440, 4.02247070296283268931e+01) (441, 9.58145325507563256906e+01) (442, 1.07107280392096437804e-01) (443, -2.28327370408225327481e+00) (444, -6.66751594119072166222e+00) (445, 2.37983449643802830176e-01) (446, 5.69177972846496627035e-01) (447, 1.48897443826689479529e+00) (448, 1.08972069084987044363e+00) (449, 5.73245266206077963567e-01) (450, -9.04796246029289763513e-01) (451, 2.25220704398395504819e-01) (452, 1.32242860787160654290e+00) (453, 1.76701844266069629796e+00) (454, 1.85359430494749388707e+00) (455, 7.10125799258179091211e-01) (456, 1.35592110056932613205e+00) (457, 3.07335509231661363483e-01) (458, 5.10406879365320476083e-01) (459, 2.28446167629910129593e-01) (460, 3.01317899255829579896e-01) (461, 4.52612940563951404727e-01) (462, 4.31832693567589520622e-01) (463, 9.25426922542623375811e-01) (464, 1.83774449233821646210e+00) (465, 1.67523621182556925469e+00) (466, -1.44004724966993374879e-01) (467, -6.68056000716613640478e-01) (468, -4.01320556457805344142e-01) (469, 4.51668253359839233507e-01) (470, 5.45552752084587311288e-01) (471, 1.63822609387240358814e+00) (472, -1.76594224085910411759e-01) (473, -8.39655287052944898640e-01) (474, -9.88128224079574124517e+00) (475, 4.05920503222722606207e-01) (476, 1.26336527900330408691e+00) (477, 3.60161643176606682815e+00) (478, 9.07244174468384301235e+00) (479, 4.71941908347110405941e+00) (480, -8.08928677945538798788e-01) (481, -6.07657805543755369371e-02) (482, 1.45414992815846022545e+00) (483, 2.17606104230932206889e+00) (484, 1.61466750844343809312e+00) (485, 1.62333308342743154462e+00) (486, 1.59244098119282995185e+00) (487, 3.75192467724212053160e-01) (488, 3.47779560273426824324e-01) (489, 5.00072037291911075663e-01) (490, 2.58853201796332310636e-01) (491, 4.85697962596415677705e-01) (492, 6.52064638030442789152e-01) (493, 2.43427982226469596938e+00) (494, 1.41428814229091805998e+01) (495, 2.76958214141189529300e+01) (496, 3.69203402477994269137e-01) (497, -8.32777032177071441232e-01) (498, -2.39570008195203770773e-01) (499, -1.00130479071891057008e-01) (500, 1.96768652866359472497e-01) (501, 3.73039916341196431393e-01) (502, -1.11481646148659574447e-01) (503, -4.50340287276876338751e+00) (504, -9.67917037932490309515e+00) (505, 6.00400494113766836080e-01) (506, 1.35827887989410522884e+00) (507, 5.54547878354881262908e+00) (508, 5.91931683425930721398e+00) (509, 2.23804701994741961357e+00) (510, -1.49907381533607253488e+00) (511, -9.26939021604752944050e-01) (512, 1.09547580093719365557e+00) (513, 2.17707222892394991476e+00) (514, 1.70869898074894388529e+00) (515, -2.80043793280703612325e+00) (516, 2.67374058940072045765e-01) (517, 2.57069948747046805870e-01) (518, 5.07718697123418216677e-01) (519, 9.91484469459412154357e-01) (520, 1.18389678894562488942e+00) (521, 1.31471806623584996920e+00) (522, 7.49570031165318440003e+00) (523, 2.61062487712056032763e+01) (524, 4.23037927568310578863e+00) (525, 2.14689314334406269325e+01) (526, 2.14825435144693294154e-01) (527, -3.08469668947252972924e-02) (528, -1.07270254799220879360e-01) (529, 6.96818886346073501636e-02) (530, 1.54401046796098349034e+01) (531, 4.18514512784997538830e+00) (532, -2.23463705350255836812e-01) (533, -3.33650446057006333511e-01) (534, -4.26689749391799821865e-01) (535, 3.42873553737046754541e-01) (536, 1.48018769255538473750e+00) (537, 5.90724815811640535657e+00) (538, 8.28983992625395771370e+00) (539, 1.94387816534819291014e+00) (540, -4.25647833097252714651e+00) (541, -9.78984123912133408218e-01) (542, 5.28539181633135068950e-01) (543, 4.23110372437464299367e+00) (544, 1.32644942121604558771e+00) (545, -1.58332951691851917531e+01) (546, -5.70724243177192225307e-02) (547, -6.01693640375701721545e-02) (548, -2.04860509617156814899e-02) (549, 4.35615544153004408123e-01) (550, 2.95532720471632148751e-01) (551, 1.44964907176970103642e+00) (552, 9.43894351354144678368e-01) (553, 6.85851559447669512082e+00) (554, 4.12061056637600842123e-01) (555, 4.03537269909739426677e-01) (556, 3.57766072273909108148e-01) (557, -2.03001375777202702766e-01) (558, 2.27921751474385175795e-02) (559, -1.22892703789906701517e-03) (560, 4.67709764745994835411e-02) (561, 4.81924062022412585948e-02) (562, 2.05826747650878522089e-01) (563, -5.27459733306608544168e-02) (564, -6.01997544009029827983e-01) (565, 6.72364649228579004669e-03) (566, 2.63126408694654889686e+00) (567, 5.57359807196918666250e+00) (568, 3.74934184004251180866e+00) (569, 1.01741355157623014627e+00) (570, -9.69567904977746763961e+00) (571, -2.49697930047398806153e+01) (572, 8.91483189791596575269e-01) (573, 9.37718971900579845169e-01) (574, 1.17292901111000325010e+00) (575, 1.56440508223375185359e-01) (576, 3.31919882615060557463e-01) (577, 2.31538747427401947476e+00) (578, 2.62924781934092743896e-01) (579, 1.72081952713199815008e+00) (580, 2.07511780917756016862e+00) (581, 3.35299021400399821502e+00) (582, 3.70983194677927841099e-01) (583, 6.96650654484641584929e-01) (584, 6.41279963089695259626e-01) (585, 5.55963848317750919392e-01) (586, 5.04553142515573926907e-01) (587, 6.48355167094676221318e-01) (588, 2.16373166940144773251e-01) (589, 1.53876751846410003699e-01) (590, 3.05073857394672909304e-01) (591, 2.10181900597557458354e+00) (592, 5.50018790727204187618e+00) (593, 1.61148183368785780090e+00) (594, 5.06832633116357955672e-01) (595, 5.57888299820636590631e-01) (596, 1.26917270367085910365e+00) (597, 9.54978043360200645751e-01) (598, 2.34225790313622050931e+00) (599, -3.94074465705175569497e-01) (600, -5.27235745089695413412e+01) (601, -9.60735245502237322768e-01) (602, 1.41610362867801264919e+00) (603, 1.90184268445753112964e+00) (604, 1.70944698353269708413e+00) (605, 1.18755427254765266731e+00) (606, 3.25184521658227310148e-01) (607, 1.65574312369540943557e+00) (608, 4.99553314656911329195e+00) (609, 2.36978579941110600871e+00) (610, 1.27086473590602491157e+01) (611, 2.74052973443244018981e+00) (612, 8.48397091434949124356e-01) (613, -1.33219522977098742134e-01) (614, 8.79121640311088803355e-02) (615, 2.14949825620805723414e-01) (616, 2.49843301389747612928e-01) (617, 3.05647795201500149798e-01) (618, 5.19702813774854832651e-01) (619, 4.84829358011991617960e-01) (620, 9.81796739129203510643e-01) (621, 7.49164847129652922142e-01) (622, 4.74667078784371110345e+00) (623, 9.58030304637917828892e-01) (624, 5.41473380799682546538e-01) (625, 5.86643419223792816908e-01) (626, 7.30312583076539456606e-01) (627, 1.47973300291255904781e+00) (628, 4.81196752187371235010e-01) (629, -6.57632682169170368347e-01) (630, -2.36968502742399742544e+01) (631, -4.66515308021382413273e-01) (632, 1.81256024582668717748e+00) (633, 1.93203730607366908067e+00) (634, 1.55203672780159829259e+00) (635, 1.17833334226275376899e+00) (636, 4.05269176891013138686e+00) (637, 3.40696753611071034840e+00) (638, 7.58537875255643445627e+00) (639, 7.39670311716772843624e+00) (640, 4.44717394771546548071e+00) (641, 9.91746561416192773386e-01) (642, 1.93884192637873015164e-02) (643, -1.33697989062566380269e+00) (644, -1.45058286463388030896e-01) (645, -1.37381974801391720797e-01) (646, 8.13366603529854931276e-02) (647, 1.47727042929207574851e-01) (648, 7.66057060688324076292e-02) (649, 1.65405384984846359764e-01) (650, 1.95828238087197598061e-01) (651, 5.04257724395715811738e-01) (652, 2.14520135905766773377e+00) (653, 1.16164105685473040275e+00) (654, 3.15687324191054108358e-01) (655, 3.22745614886755016748e-01) (656, 5.51783887245111404063e-01) (657, 3.59942596909838263830e-01) (658, -2.23643705170475270982e-01) (659, -6.84237571630315621896e-01) (660, -3.74735686338029383435e+00) (661, -1.55452119758616641443e-01) (662, 1.02610320618844341745e+00) (663, 1.83912009533104225945e+00) (664, 1.24278497884147087760e+00) (665, 1.13036222189270008087e+00) (666, 2.33403184854207434995e+00) (667, 3.05890170529805560662e+00) (668, 1.97669291526460244590e+00) (669, 3.14695389853006712855e+00) (670, 1.31040897103459208495e+00) (671, 1.75718450262327546829e-01) (672, 1.65662946474701255895e-01) (673, -7.47625465793885668475e-01) (674, -6.53799834008603308888e-01) (675, -1.11026047734820725310e+01) (676, -2.23531045903255964902e+01) (677, -9.23947629724781727134e+00) (678, -1.42566401571345435784e+00) (679, 1.69863813892027371022e-01) (680, 1.23284077611896497606e-01) (681, 5.87320240198138554533e-01) (682, 5.92104299487363983090e-01) (683, 6.00690416660610515542e-01) (684, 5.37663535959558513966e-01) (685, 5.75119642486264348591e-01) (686, 6.61706870862837082115e-01) (687, 1.38549162723482860438e-01) (688, -4.96140431972840578734e-01) (689, -9.24756972696633927633e-01) (690, -1.99801406882091980854e+00) (691, -3.27556526897504474150e-01) (692, 6.55577050299248398346e-01) (693, 1.56057568155403347809e+00) (694, 7.66701531436710048695e-01) (695, 8.08202706838909046283e-01) (696, 8.25775938692928646034e-01) (697, 1.81313660330856230019e+01) (698, 1.65773616782176813622e+00) (699, 1.44089215187115526895e+00) (700, 1.67274221942863898782e-01) (701, -7.29019307469966793001e-01) (702, -1.13519935112162162483e+00) (703, -7.73219780615457175088e+00) (704, -1.43293895576976694883e+02) (705, -3.13999008146743449288e+02) (706, -5.90985995892280797648e+01) (707, -9.91426620696416804890e+00) (708, 1.30691125751669412480e-01) (709, -3.25369962786573774238e+00) (710, 2.86809952023712844138e-01) (711, 6.90109137830642205280e-01) (712, 6.30239922671093300011e-01) (713, 9.32532824939397930741e-01) (714, 7.77355350091433860982e-01) (715, 6.19503313857163506739e-01) (716, 2.91300610839091034254e-01) (717, 4.46680642672090955081e-02) (718, -5.53019373078384002262e-01) (719, -9.73093147688487825064e+00) (720, -7.02521002869690880388e-01) (721, 1.21183531185269591918e-02) (722, 3.92551404278338067488e-01) (723, 2.21514845701741913686e+00) (724, 1.78916931717057181572e+00) (725, 6.27073853813926884726e-01) (726, 4.56778546020794928850e-01) (727, 3.25829644221312719754e-01) (728, -7.05147773261558974411e-01) (729, -1.14677443700527303960e+00) (730, -1.05910569858242986641e+00) (731, -3.31476668690587272792e+00) (732, -4.56783373468456943556e+00) (733, -2.50755099583674088137e+01) (734, -5.55825692110929139744e+02) (735, -7.84503860601073142789e+02) (736, -3.00605359457448628291e+02) (737, -3.03559169971244273256e+02) (738, -7.02705323130647752095e+00) (739, 2.35199295161785670860e-01) (740, 3.81797022125788920732e-01) (741, 7.37998212453819579792e-01) (742, 9.42658089959241274336e-01) (743, 5.29774210845408211057e-01) (744, 5.28219694526677496782e-01) (745, 4.42969293035216038490e-01) (746, 4.91346527726308823780e-01) (747, 2.27313891085854258289e-01) (748, -1.15353790511487597215e+00) (749, -2.48676018178443403173e+00) (750, -9.30655599817561629550e-01) (751, 1.81801047015965888676e-01) (752, 3.00776047022966874778e+00) (753, 6.75891732506188969154e+00) (754, 2.87900624636232249642e+00) (755, 6.98086199211233826567e-01) (756, -1.34831502806176228848e-01) (757, -4.17553451731518199264e-01) (758, -7.10926501294275370313e-01) (759, -8.86853131448499976131e-01) (760, -1.10767581045217378133e+00) (761, -9.82495719345403806244e+00) (762, -3.00443534734712500267e+02) (763, -5.35145071423397325816e+02) (764, -6.59862464051671963716e+02) (765, -6.59755269940920811678e+02) (766, -4.13302280154112850141e+02) (767, -2.13728662096361432532e+01) (768, 4.93973620716661940278e-02) (769, 4.77254950913360176390e-01) (770, 3.73230378455341738064e-01) (771, 7.84614171128744875006e-01) (772, 5.05536489672343591906e+00) (773, 2.06285474828945059045e+00) (774, 1.21768646470219765732e+00) (775, 3.48357571305432267561e-01) (776, 4.25462387505091410578e-01) (777, 5.68895269296316383190e-02) (778, -3.32969313239556974349e-01) (779, -1.72334764978878163255e+00) (780, -5.42074130631159056826e-01) (781, -3.73521092239108010169e-02) (782, 2.59187878876693433838e+00) (783, 8.91557471325062245171e+00) (784, 4.18597011872085555950e+00) (785, 4.80153666729269457125e-01) (786, -1.43945548866303875413e-02) (787, -2.29981372906625680663e-01) (788, -1.59104891540260151572e+00) (789, -9.22017789708058899123e+00) (790, -7.44897911729426880356e+01) (791, -5.35613544804995171944e+02) (792, -7.74343254117562992178e+02) (793, -6.58557981677994007441e+02) (794, -4.79191031108569291064e+02) (795, -4.13761158039871702385e+02) (796, -5.18881466392047059344e+01) (797, -8.77540009859464831266e+00) (798, 3.92359909261741912623e-01) (799, 4.22486804266520521445e-01) (800, 5.12701773140378458393e-01) (801, 1.31599236333604974192e+00) (802, 1.12811563145921187612e+01) (803, 9.38798626626148191576e+00) (804, 8.05019145263835778081e-01) (805, 4.38967704385639756470e-01) (806, 2.93694326449772280530e-01) (807, -1.62121067266673496432e-01) (808, -2.66908090893022531542e-01) (809, -1.00993861570076126633e+00) (810, -5.91387932015039585742e-01) (811, -4.01913901696147185527e-02) (812, 3.44518655591189493226e-01) (813, 1.03492954488673549740e+00) (814, 3.19803857873998398365e-01) (815, 6.32434153392433945351e-02) (816, -1.73705185804927358939e-01) (817, -3.55842336117613067259e-01) (818, -2.34084753128132661004e+01) (819, -5.34348032620673620841e+02) (820, -7.74275435140624267660e+02) (821, -7.74324536105885727011e+02) (822, -7.74364253023907167517e+02) (823, -7.74286485133960468374e+02) (824, -6.00351580886670944892e+02) (825, -6.00401690258213875495e+02) (826, -2.40089967280380101045e+01) (827, -1.55400836949919862739e+00) (828, -3.78309515278179686604e-01) (829, -1.33776625801173415509e-01) (830, -6.82780582894703669261e-02) (831, 4.81453352901577258383e-01) (832, 1.42507601498537295193e+00) (833, 3.71783058120511988864e-01) (834, 2.65104149167316345548e-02) (835, -1.63123673046554118482e-01) (836, -2.04523849331141316377e-01) (837, -1.40261854196623264590e-01) (838, -1.74605399934489535774e-01) (839, -9.97872424742659913655e-01) (840, -4.41217961074386211262e-01) (841, -3.45953109625651844539e-01) (842, -9.42815283167440787437e-02) (843, 1.18237726181842032341e-02) (844, -6.05136038008820820178e-02) (845, -8.55809763846754056882e-02) (846, -9.26515477051696560717e-03) (847, -8.54907439988045747548e-02) (848, -1.66138538956718235795e+01) (849, -1.22967224595864863090e+02) (850, -2.94777179225967984166e+02) (851, -2.94991211173924114064e+02) (852, -5.34117911061162772057e+02) (853, -5.34237418277079882500e+02) (854, -5.34195147042984785912e+02) (855, -5.34142507454271139977e+02) (856, -2.17720372204889791590e+01) (857, -1.70252774232285819522e+00) (858, -3.24149048214585067118e-01) (859, -4.46095543778437728100e-02) (860, -5.72260400823900519662e-02) (861, -7.25977399102702286582e-02) (862, -2.76717303036625762724e-02) (863, -5.90618316174158636267e-02) (864, -2.40897776725593967817e-02) (865, -1.94362659029319151394e-01) (866, -7.60201159084825661694e-02) (867, -1.10533856014764800269e-01) (868, -6.95069765825188867758e-01) (869, -1.23957000171038078662e+00) (870, -1.47531786935107245284e+00) (871, -6.81930020420844273943e-01) (872, -6.14975533029206711255e-01) (873, -5.20763351163037291336e-01) (874, -4.96621994814045730759e-01) (875, -5.73890256556885525185e-01) (876, -6.03383016068634980833e-01) (877, -4.55430680635345197516e+00) (878, -1.00945381250902581627e+01) (879, -5.23738342394424307713e+01) (880, -5.24205816780520308384e+01) (881, -5.25047342350078452000e+01) (882, -5.25919047008859834591e+01) (883, -1.24015075655643514096e+02) (884, -2.27211287692041210562e+01) (885, -5.23334068526817191014e+01) (886, -9.89996628373386755584e+00) (887, -4.48314913985794749607e+00) (888, -2.33092076931511416049e+00) (889, -6.18178301486793424502e-01) (890, -5.62099953741504010374e-01) (891, -6.61265991284939014250e-01) (892, -5.54190570482460120871e-01) (893, -6.90148204949655119655e-01) (894, 